{"model_info": {"nombre": "Diabeter detection model", "version": "v1.0.0", "owner": "Tekvot"}, "input_layer": {"n_entradas": 31}, "layers": {"layer_1": {"neuron_1": {"inputs_names": ["x1", "x2", "x3", "x4", "x5", "x6", "x7", "x8", "x9", "x10", "x11", "x12", "x13", "x14", "x15", "x16", "x17", "x18", "x19", "x20", "x21", "x22", "x23", "x24", "x25", "x26", "x27", "x28", "x29", "x30", "x31"], "outputs_names": ["o1"], "pesos": {"w": [0.04664921760559082, 0.13832977414131165, -0.164478600025177, -0.12953808903694153, -0.14954298734664917, -0.13352954387664795, 0.07102736830711365, -0.20822012424468994, -0.1196969524025917, -0.09125193953514099, -0.029149040579795837, 0.06121310591697693, -0.2185874879360199, 0.019050419330596924, 0.14511236548423767, 0.2283206582069397, 0.17388466000556946, -0.1252186894416809, 0.09547251462936401, 0.06771308183670044, 0.1266956925392151, 0.07566213607788086, 0.02428761124610901, -0.07585170865058899, -0.03682897984981537, 0.22813749313354492, 0.09089967608451843, -0.01010921597480774, -0.22105012834072113, -0.2110854834318161, 0.10761234164237976]}, "bias": 0.0, "fa": "relu"}, "neuron_2": {"inputs_names": ["x1", "x2", "x3", "x4", "x5", "x6", "x7", "x8", "x9", "x10", "x11", "x12", "x13", "x14", "x15", "x16", "x17", "x18", "x19", "x20", "x21", "x22", "x23", "x24", "x25", "x26", "x27", "x28", "x29", "x30", "x31"], "outputs_names": ["o2"], "pesos": {"w": [0.05407252907752991, -0.18434137105941772, -0.16666436195373535, 0.16180703043937683, 0.08388164639472961, 0.12686887383460999, 0.20507264137268066, 0.09015008807182312, 0.07092881202697754, -0.13103052973747253, 0.11734256148338318, -0.11854071915149689, -0.054936304688453674, 0.07207408547401428, -0.09253799915313721, 0.19923007488250732, -0.15582263469696045, -0.17475509643554688, 0.22723057866096497, 0.07694652676582336, 0.07928451895713806, -0.20578908920288086, -0.009796470403671265, -0.10072840750217438, -0.19777590036392212, -0.09475502371788025, -0.13029035925865173, 0.0840136706829071, -0.053775519132614136, 0.12918689846992493, 0.043271541595458984]}, "bias": 0.0, "fa": "relu"}, "neuron_3": {"inputs_names": ["x1", "x2", "x3", "x4", "x5", "x6", "x7", "x8", "x9", "x10", "x11", "x12", "x13", "x14", "x15", "x16", "x17", "x18", "x19", "x20", "x21", "x22", "x23", "x24", "x25", "x26", "x27", "x28", "x29", "x30", "x31"], "outputs_names": ["o3"], "pesos": {"w": [0.1490688920021057, 0.06933200359344482, -0.15775135159492493, -0.09882329404354095, 0.21281388401985168, 0.028979331254959106, -0.08847029507160187, 0.08534491062164307, 0.20885926485061646, -0.17758752405643463, -0.21112583577632904, -0.06487667560577393, 0.01759546995162964, 0.10786378383636475, 0.1426638662815094, 0.09543284773826599, -0.10398869216442108, -0.20408308506011963, 0.11463892459869385, -0.11453858762979507, 0.053813934326171875, -0.09021133184432983, 0.1996118426322937, -0.09270533919334412, 0.03311508893966675, -0.1562993824481964, 0.17904657125473022, -0.09531094133853912, 0.0022507905960083008, 0.1016780436038971, 0.2072574496269226]}, "bias": 0.0, "fa": "relu"}, "neuron_4": {"inputs_names": ["x1", "x2", "x3", "x4", "x5", "x6", "x7", "x8", "x9", "x10", "x11", "x12", "x13", "x14", "x15", "x16", "x17", "x18", "x19", "x20", "x21", "x22", "x23", "x24", "x25", "x26", "x27", "x28", "x29", "x30", "x31"], "outputs_names": ["o4"], "pesos": {"w": [-0.16605572402477264, 0.11782398819923401, 0.015405043959617615, 0.16039997339248657, 0.08487048745155334, 0.15592539310455322, 0.12943565845489502, -0.20788954198360443, 0.1551143229007721, -0.15266305208206177, -0.20984986424446106, 0.092654287815094, 0.09471401572227478, 0.09956240653991699, 0.14494314789772034, -0.22419683635234833, -0.06337004899978638, 0.00787438452243805, 0.011505350470542908, 0.08325138688087463, -0.22063083946704865, 0.039829522371292114, 0.057725876569747925, 0.08456927537918091, -0.10120466351509094, -0.008525267243385315, -0.11468592286109924, -0.161519855260849, 0.21767085790634155, -0.19804611802101135, -0.04170726239681244]}, "bias": 0.0, "fa": "relu"}, "neuron_5": {"inputs_names": ["x1", "x2", "x3", "x4", "x5", "x6", "x7", "x8", "x9", "x10", "x11", "x12", "x13", "x14", "x15", "x16", "x17", "x18", "x19", "x20", "x21", "x22", "x23", "x24", "x25", "x26", "x27", "x28", "x29", "x30", "x31"], "outputs_names": ["o5"], "pesos": {"w": [0.0329919159412384, 0.13438966870307922, 0.004048362374305725, -0.07950767874717712, 0.10171785950660706, 0.12232500314712524, -0.18991458415985107, 0.19798913598060608, -0.15306425094604492, 0.20866340398788452, 0.1612895429134369, 0.07567542791366577, -0.023260310292243958, -0.2071029096841812, -0.06610696017742157, 0.060647815465927124, -0.10211838781833649, 0.22700965404510498, 0.17857453227043152, 0.09083953499794006, 0.11648255586624146, -0.020815908908843994, 0.14230206608772278, 0.08119627833366394, 0.010520070791244507, -0.0014461427927017212, 0.17211025953292847, -0.058379024267196655, 0.013683915138244629, 0.05037832260131836, 0.052550166845321655]}, "bias": 0.0, "fa": "relu"}, "neuron_6": {"inputs_names": ["x1", "x2", "x3", "x4", "x5", "x6", "x7", "x8", "x9", "x10", "x11", "x12", "x13", "x14", "x15", "x16", "x17", "x18", "x19", "x20", "x21", "x22", "x23", "x24", "x25", "x26", "x27", "x28", "x29", "x30", "x31"], "outputs_names": ["o6"], "pesos": {"w": [0.011969804763793945, 0.08837765455245972, -0.1397227942943573, 0.11309963464736938, 0.07331979274749756, -0.17382889986038208, 0.10319587588310242, -0.22569414973258972, -0.01800277829170227, -0.14117781817913055, 0.14652016758918762, -0.1491982638835907, -0.12841972708702087, -0.22222687304019928, -0.21125204861164093, 0.18969985842704773, 0.07022687792778015, -0.10080556571483612, -0.20233915746212006, -0.16327142715454102, 0.1973448097705841, 0.17890101671218872, -0.0661398321390152, 0.040671467781066895, -0.044508859515190125, 0.20225009322166443, -0.0752895325422287, 0.006094381213188171, -0.15011537075042725, -0.1006750762462616, 0.04982176423072815]}, "bias": 0.0, "fa": "relu"}, "neuron_7": {"inputs_names": ["x1", "x2", "x3", "x4", "x5", "x6", "x7", "x8", "x9", "x10", "x11", "x12", "x13", "x14", "x15", "x16", "x17", "x18", "x19", "x20", "x21", "x22", "x23", "x24", "x25", "x26", "x27", "x28", "x29", "x30", "x31"], "outputs_names": ["o7"], "pesos": {"w": [0.009622856974601746, -0.10855090618133545, 0.14306265115737915, 0.13029888272285461, 0.07965078949928284, -0.015327617526054382, 0.04423707723617554, -0.04463796317577362, 0.10573339462280273, -0.09120050072669983, 0.05045589804649353, -0.10667012631893158, 0.1585785150527954, 0.09516799449920654, -0.06653617322444916, -0.07033614814281464, -0.1153605729341507, -0.0539083331823349, 0.09148675203323364, -0.07737761735916138, 0.14846736192703247, -0.05252942442893982, 0.22444471716880798, -0.007261157035827637, 0.032026976346969604, -0.0850801169872284, -0.019482851028442383, -0.049099624156951904, 0.21977907419204712, -0.06693904101848602, -0.2059333771467209]}, "bias": 0.0, "fa": "relu"}, "neuron_8": {"inputs_names": ["x1", "x2", "x3", "x4", "x5", "x6", "x7", "x8", "x9", "x10", "x11", "x12", "x13", "x14", "x15", "x16", "x17", "x18", "x19", "x20", "x21", "x22", "x23", "x24", "x25", "x26", "x27", "x28", "x29", "x30", "x31"], "outputs_names": ["o8"], "pesos": {"w": [0.05344343185424805, 0.15579497814178467, 0.08754691481590271, 0.08467307686805725, 0.1886880099773407, 0.22918209433555603, -0.04571576416492462, 0.12208187580108643, -0.014083459973335266, -0.2172936648130417, -0.06647314131259918, 0.026880592107772827, -0.05126604437828064, 0.13691893219947815, -0.08891485631465912, 0.11590281128883362, 0.019965142011642456, -0.1271871030330658, 0.17932075262069702, 0.01123201847076416, 0.004754558205604553, 0.20555445551872253, 0.18124115467071533, -0.20695829391479492, -0.0024929046630859375, 0.1458236277103424, -0.024153590202331543, 0.07539895176887512, -0.053860604763031006, -0.12881654500961304, -0.14370903372764587]}, "bias": 0.0, "fa": "relu"}, "neuron_9": {"inputs_names": ["x1", "x2", "x3", "x4", "x5", "x6", "x7", "x8", "x9", "x10", "x11", "x12", "x13", "x14", "x15", "x16", "x17", "x18", "x19", "x20", "x21", "x22", "x23", "x24", "x25", "x26", "x27", "x28", "x29", "x30", "x31"], "outputs_names": ["o9"], "pesos": {"w": [-0.16838932037353516, -0.1586686372756958, 0.22699511051177979, 0.05401968955993652, 0.09433397650718689, 0.0022704005241394043, 0.1491086781024933, 0.16590988636016846, -0.15814858675003052, 0.0630192756652832, -0.15690940618515015, 0.15493783354759216, 0.08963727951049805, -0.10896647721529007, -0.1559138149023056, 0.04521554708480835, 0.16748639941215515, 0.1763859987258911, -0.19831916689872742, -0.2302367389202118, 0.15075504779815674, -0.06888723373413086, -0.19902004301548004, 0.1793290674686432, 0.05205941200256348, 0.03642988204956055, 0.1756059229373932, 0.14724990725517273, -0.11053162813186646, 0.13453593850135803, 0.10588517785072327]}, "bias": 0.0, "fa": "relu"}, "neuron_10": {"inputs_names": ["x1", "x2", "x3", "x4", "x5", "x6", "x7", "x8", "x9", "x10", "x11", "x12", "x13", "x14", "x15", "x16", "x17", "x18", "x19", "x20", "x21", "x22", "x23", "x24", "x25", "x26", "x27", "x28", "x29", "x30", "x31"], "outputs_names": ["o10"], "pesos": {"w": [-0.11042220890522003, 0.010352611541748047, 0.04455670714378357, 0.0013392716646194458, -0.029537558555603027, 0.12065702676773071, 0.21796077489852905, -0.01375669240951538, -0.05365091562271118, 0.06724861264228821, -0.016815051436424255, -0.18128877878189087, -0.07183511555194855, 0.05693233013153076, 0.004724845290184021, -0.006534278392791748, 0.007535263895988464, -0.03832024335861206, 0.15167859196662903, -0.19238227605819702, -0.07381612062454224, -0.1599622368812561, 0.20550066232681274, -0.21150746941566467, -0.005356922745704651, -0.11375074088573456, 0.12362164258956909, -0.08125880360603333, 0.1381359100341797, -0.06505931913852692, -0.11107873916625977]}, "bias": 0.0, "fa": "relu"}, "neuron_11": {"inputs_names": ["x1", "x2", "x3", "x4", "x5", "x6", "x7", "x8", "x9", "x10", "x11", "x12", "x13", "x14", "x15", "x16", "x17", "x18", "x19", "x20", "x21", "x22", "x23", "x24", "x25", "x26", "x27", "x28", "x29", "x30", "x31"], "outputs_names": ["o11"], "pesos": {"w": [-0.04832674562931061, -0.1921301782131195, 0.17929819226264954, -0.09663963317871094, -0.23206469416618347, -0.10452865064144135, 0.20444947481155396, -0.14331568777561188, -0.02538815140724182, 0.11062806844711304, 0.1174059808254242, -0.10141302645206451, 0.1389451026916504, 0.15407243371009827, -0.2042020857334137, -0.21231798827648163, -0.0857190191745758, 0.22951734066009521, 0.2216590940952301, 0.03173929452896118, 0.17262572050094604, 0.21714121103286743, 0.13775023818016052, 0.07279971241950989, 0.029269784688949585, 0.09925293922424316, -0.0787525326013565, -0.23093794286251068, -0.057175055146217346, -0.10921430587768555, -0.0506000816822052]}, "bias": 0.0, "fa": "relu"}, "neuron_12": {"inputs_names": ["x1", "x2", "x3", "x4", "x5", "x6", "x7", "x8", "x9", "x10", "x11", "x12", "x13", "x14", "x15", "x16", "x17", "x18", "x19", "x20", "x21", "x22", "x23", "x24", "x25", "x26", "x27", "x28", "x29", "x30", "x31"], "outputs_names": ["o12"], "pesos": {"w": [-0.09059746563434601, 0.1559000015258789, 0.11125972867012024, 0.2185869812965393, -0.19765061140060425, 0.0766156017780304, 0.07137498259544373, -0.06379936635494232, -0.10588416457176208, 0.14952310919761658, -0.053564608097076416, 0.08662921190261841, 0.17078477144241333, -0.16997919976711273, 0.00487828254699707, -0.12893489003181458, -0.02258405089378357, -0.14382582902908325, 0.0901738703250885, 0.22564047574996948, 0.03272104263305664, -0.20894688367843628, -0.10462398827075958, 0.10628458857536316, -0.19751642644405365, -0.18120473623275757, 0.06777271628379822, 0.1751645803451538, -0.06511646509170532, -0.14471831917762756, -0.15532752871513367]}, "bias": 0.0, "fa": "relu"}, "neuron_13": {"inputs_names": ["x1", "x2", "x3", "x4", "x5", "x6", "x7", "x8", "x9", "x10", "x11", "x12", "x13", "x14", "x15", "x16", "x17", "x18", "x19", "x20", "x21", "x22", "x23", "x24", "x25", "x26", "x27", "x28", "x29", "x30", "x31"], "outputs_names": ["o13"], "pesos": {"w": [-0.21249575912952423, 0.017697125673294067, 0.06951481103897095, -0.19457823038101196, 0.159394770860672, -0.19661937654018402, 0.2219952940940857, -0.1942487508058548, -0.023676827549934387, -0.006183847784996033, 0.18461757898330688, -0.2265908569097519, 0.11675727367401123, -0.011652693152427673, -0.1317930966615677, 0.10629501938819885, -0.1429973542690277, -0.07559634745121002, -0.04957488179206848, -0.1008560061454773, -0.20710551738739014, -0.07453189790248871, -0.020888030529022217, 0.0520707368850708, 0.006986215710639954, 0.08229050040245056, 0.02111905813217163, -0.018547162413597107, -0.09671440720558167, 0.2082003355026245, -0.17896920442581177]}, "bias": 0.0, "fa": "relu"}, "neuron_14": {"inputs_names": ["x1", "x2", "x3", "x4", "x5", "x6", "x7", "x8", "x9", "x10", "x11", "x12", "x13", "x14", "x15", "x16", "x17", "x18", "x19", "x20", "x21", "x22", "x23", "x24", "x25", "x26", "x27", "x28", "x29", "x30", "x31"], "outputs_names": ["o14"], "pesos": {"w": [0.146394282579422, -0.1697288155555725, -0.1420867145061493, 0.11082902550697327, -0.20467320084571838, 0.018862634897232056, 0.15664002299308777, -0.14636534452438354, 0.10303610563278198, 0.05813261866569519, 0.1990380585193634, 0.20576584339141846, -0.167173832654953, -0.08254553377628326, -0.16961181163787842, 0.1822989583015442, -0.16573655605316162, 0.1304163634777069, 0.006574526429176331, 0.08850908279418945, 0.02117559313774109, 0.21853366494178772, -0.06354875862598419, 0.07852593064308167, 0.1153150200843811, 0.049591392278671265, 0.18665790557861328, 0.0748036801815033, -0.19805100560188293, 0.1490405797958374, 0.14925235509872437]}, "bias": 0.0, "fa": "relu"}, "neuron_15": {"inputs_names": ["x1", "x2", "x3", "x4", "x5", "x6", "x7", "x8", "x9", "x10", "x11", "x12", "x13", "x14", "x15", "x16", "x17", "x18", "x19", "x20", "x21", "x22", "x23", "x24", "x25", "x26", "x27", "x28", "x29", "x30", "x31"], "outputs_names": ["o15"], "pesos": {"w": [-0.08283421397209167, 0.21280544996261597, -0.21599075198173523, 0.07622703909873962, 0.19000837206840515, 0.11360535025596619, -0.14807124435901642, 0.07608020305633545, 0.1964455544948578, 0.09373447299003601, 0.19223317503929138, 0.2274368405342102, 0.2047831118106842, 0.02712470293045044, -0.048463985323905945, 0.09923496842384338, -0.18221375346183777, 0.13789740204811096, 0.15340039134025574, -0.19128817319869995, 0.09891325235366821, -0.11407950520515442, 0.017697185277938843, -0.11682245880365372, 0.19102171063423157, -0.2176339030265808, -0.024232298135757446, -0.21528133749961853, 0.17920827865600586, 0.08926123380661011, -0.20675180852413177]}, "bias": 0.0, "fa": "relu"}, "neuron_16": {"inputs_names": ["x1", "x2", "x3", "x4", "x5", "x6", "x7", "x8", "x9", "x10", "x11", "x12", "x13", "x14", "x15", "x16", "x17", "x18", "x19", "x20", "x21", "x22", "x23", "x24", "x25", "x26", "x27", "x28", "x29", "x30", "x31"], "outputs_names": ["o16"], "pesos": {"w": [-0.16494743525981903, -0.011123821139335632, -0.16913199424743652, -0.22287148237228394, -0.07410551607608795, -0.15224643051624298, 0.1387639045715332, 0.22006520628929138, -0.2313184142112732, 0.14407366514205933, -0.02988933026790619, 0.21687892079353333, 0.22478124499320984, -0.05285558104515076, -0.00446830689907074, 0.18757018446922302, 0.0013193190097808838, 0.10371580719947815, 0.17450836300849915, 0.16302141547203064, 0.1194557249546051, 0.22041720151901245, 0.1419680416584015, -0.15568166971206665, 0.20681211352348328, 0.00758737325668335, -0.0957581102848053, -0.17143188416957855, 0.16189643740653992, 0.1801106333732605, 0.07269534468650818]}, "bias": 0.0, "fa": "relu"}, "neuron_17": {"inputs_names": ["x1", "x2", "x3", "x4", "x5", "x6", "x7", "x8", "x9", "x10", "x11", "x12", "x13", "x14", "x15", "x16", "x17", "x18", "x19", "x20", "x21", "x22", "x23", "x24", "x25", "x26", "x27", "x28", "x29", "x30", "x31"], "outputs_names": ["o17"], "pesos": {"w": [-0.030477672815322876, 0.1740015745162964, 0.009300529956817627, 0.007155388593673706, -0.055571600794792175, 0.0553891658782959, -0.04539304971694946, 0.05217316746711731, 0.062249064445495605, -0.1922786682844162, 0.04078394174575806, -0.191489115357399, 0.11608260869979858, 0.1797671914100647, -0.04950200021266937, 0.1984955072402954, 0.22682565450668335, -0.18021507561206818, -0.12078423798084259, 0.10979589819908142, -0.08517883718013763, 0.16438740491867065, -0.163675457239151, 0.0011220425367355347, -0.054480940103530884, -0.05959019064903259, -0.06438267230987549, 0.1378922462463379, -0.06068241596221924, 0.07876408100128174, -0.08621624112129211]}, "bias": 0.0, "fa": "relu"}, "neuron_18": {"inputs_names": ["x1", "x2", "x3", "x4", "x5", "x6", "x7", "x8", "x9", "x10", "x11", "x12", "x13", "x14", "x15", "x16", "x17", "x18", "x19", "x20", "x21", "x22", "x23", "x24", "x25", "x26", "x27", "x28", "x29", "x30", "x31"], "outputs_names": ["o18"], "pesos": {"w": [0.038101792335510254, -0.19895170629024506, -0.17829331755638123, 0.006021440029144287, -0.16095572710037231, 0.19081491231918335, 0.18933555483818054, -0.1425347775220871, -0.014836937189102173, 0.08392870426177979, 0.1369350552558899, -0.19339510798454285, 0.18260475993156433, 0.016446605324745178, -0.2173890620470047, 0.18242821097373962, -0.139732226729393, 0.07668623328208923, 0.07955944538116455, -0.032683223485946655, -0.16194239258766174, 0.0069484710693359375, -0.08027961850166321, 0.0792192816734314, -0.1007138192653656, 0.0030481070280075073, 0.11331671476364136, -0.14678308367729187, -0.20750118792057037, 0.1966308057308197, -0.1173340380191803]}, "bias": 0.0, "fa": "relu"}, "neuron_19": {"inputs_names": ["x1", "x2", "x3", "x4", "x5", "x6", "x7", "x8", "x9", "x10", "x11", "x12", "x13", "x14", "x15", "x16", "x17", "x18", "x19", "x20", "x21", "x22", "x23", "x24", "x25", "x26", "x27", "x28", "x29", "x30", "x31"], "outputs_names": ["o19"], "pesos": {"w": [0.17818018794059753, -0.0013570040464401245, 0.16922083497047424, -0.13072825968265533, 0.14167159795761108, 0.15406367182731628, 0.06817054748535156, -0.07028687000274658, -0.08873869478702545, 0.17858383059501648, 0.1752033233642578, -0.22881647944450378, 0.09674346446990967, 0.015793010592460632, 0.18574893474578857, -0.20328930020332336, 0.02998250722885132, 0.1213657557964325, 0.22501328587532043, 0.06650063395500183, -0.06935994327068329, 0.08657100796699524, 0.1237320601940155, 0.029005080461502075, 0.18035703897476196, 0.22805523872375488, -0.04303106665611267, -0.041766464710235596, -0.14738479256629944, 0.23196446895599365, -0.23059554398059845]}, "bias": 0.0, "fa": "relu"}, "neuron_20": {"inputs_names": ["x1", "x2", "x3", "x4", "x5", "x6", "x7", "x8", "x9", "x10", "x11", "x12", "x13", "x14", "x15", "x16", "x17", "x18", "x19", "x20", "x21", "x22", "x23", "x24", "x25", "x26", "x27", "x28", "x29", "x30", "x31"], "outputs_names": ["o20"], "pesos": {"w": [-0.19709369540214539, 0.05933448672294617, -0.09040406346321106, 0.02048930525779724, 0.09973901510238647, 0.12991708517074585, 0.051291316747665405, 0.025242209434509277, 0.01663351058959961, 0.158125638961792, -0.03556205332279205, -0.16960924863815308, -0.1606837809085846, -0.16016548871994019, -0.13082343339920044, -0.14964449405670166, -0.10961856693029404, -0.20148451626300812, 0.10997411608695984, -0.14495229721069336, -0.09568244218826294, -0.1338057518005371, -0.10191208124160767, 0.23205643892288208, 0.2188856303691864, -0.036006391048431396, -0.21232707798480988, -0.22093871235847473, -0.04530364274978638, 0.029704898595809937, -0.14083236455917358]}, "bias": 0.0, "fa": "relu"}, "neuron_21": {"inputs_names": ["x1", "x2", "x3", "x4", "x5", "x6", "x7", "x8", "x9", "x10", "x11", "x12", "x13", "x14", "x15", "x16", "x17", "x18", "x19", "x20", "x21", "x22", "x23", "x24", "x25", "x26", "x27", "x28", "x29", "x30", "x31"], "outputs_names": ["o21"], "pesos": {"w": [0.13172662258148193, -0.010367795825004578, 0.13523221015930176, 0.11787092685699463, 0.1451963484287262, 0.07829046249389648, -0.14787402749061584, -0.06180505454540253, 0.19613608717918396, -0.06386356055736542, -0.2086898535490036, -0.19423550367355347, -0.1222752258181572, 0.14273777604103088, 0.15931463241577148, 0.06630435585975647, -0.1777534782886505, -0.1766837239265442, 0.18341666460037231, 0.22238469123840332, 0.1643681824207306, 0.07784700393676758, 0.11644935607910156, -0.06818187236785889, 0.10548141598701477, 0.08450573682785034, -0.17552608251571655, 0.009682059288024902, 0.027794480323791504, 0.14527064561843872, -0.032875075936317444]}, "bias": 0.0, "fa": "relu"}, "neuron_22": {"inputs_names": ["x1", "x2", "x3", "x4", "x5", "x6", "x7", "x8", "x9", "x10", "x11", "x12", "x13", "x14", "x15", "x16", "x17", "x18", "x19", "x20", "x21", "x22", "x23", "x24", "x25", "x26", "x27", "x28", "x29", "x30", "x31"], "outputs_names": ["o22"], "pesos": {"w": [-0.002394244074821472, 0.020360052585601807, 0.08331075310707092, 0.14961421489715576, -0.22387954592704773, -0.14955835044384003, 0.07226237654685974, 0.132482647895813, -0.010488972067832947, -0.13090914487838745, 0.22966879606246948, -0.03315843641757965, 0.08239182829856873, -0.05957196652889252, 0.13117840886116028, -0.022530734539031982, -0.18046073615550995, -0.06628301739692688, -0.02217724919319153, -0.18910828232765198, 0.21510156989097595, -0.07009872794151306, -0.20379100739955902, -0.053782448172569275, -0.05733752250671387, -0.08736255764961243, -0.07395857572555542, 0.17917650938034058, 0.16876348853111267, 0.007299289107322693, 0.22376596927642822]}, "bias": 0.0, "fa": "relu"}, "neuron_23": {"inputs_names": ["x1", "x2", "x3", "x4", "x5", "x6", "x7", "x8", "x9", "x10", "x11", "x12", "x13", "x14", "x15", "x16", "x17", "x18", "x19", "x20", "x21", "x22", "x23", "x24", "x25", "x26", "x27", "x28", "x29", "x30", "x31"], "outputs_names": ["o23"], "pesos": {"w": [0.1255437731742859, 0.1635739505290985, -0.21470102667808533, 0.07068008184432983, -0.008655086159706116, 0.08822488784790039, 0.08668375015258789, -0.16364935040473938, 0.21015283465385437, -0.007031500339508057, 0.20927992463111877, 0.0029983222484588623, 0.1425260305404663, 0.12909454107284546, 0.08553388714790344, 0.10196945071220398, 0.15787363052368164, 0.12727218866348267, -0.15357527136802673, 0.19651994109153748, 0.0276147723197937, -0.016192510724067688, 0.0008416622877120972, 0.13700982928276062, -0.0937134176492691, 0.06259223818778992, 0.09036853909492493, 0.2315846085548401, 0.21676689386367798, 0.01190069317817688, -0.032227590680122375]}, "bias": 0.0, "fa": "relu"}, "neuron_24": {"inputs_names": ["x1", "x2", "x3", "x4", "x5", "x6", "x7", "x8", "x9", "x10", "x11", "x12", "x13", "x14", "x15", "x16", "x17", "x18", "x19", "x20", "x21", "x22", "x23", "x24", "x25", "x26", "x27", "x28", "x29", "x30", "x31"], "outputs_names": ["o24"], "pesos": {"w": [-0.07028819620609283, -0.19288188219070435, -0.12323928624391556, 0.013677150011062622, 0.09332728385925293, -0.06662429869174957, -0.21340832114219666, -0.0688428282737732, -0.019135400652885437, -0.15663176774978638, 0.13446277379989624, -0.032359346747398376, 0.22066575288772583, -0.09527625143527985, 0.11322775483131409, -0.04867751896381378, 0.050540775060653687, -0.18015137314796448, 0.017195478081703186, 0.03225812315940857, -0.1888887733221054, 0.14259958267211914, -0.16941431164741516, -0.11163659393787384, -0.09882056713104248, -0.11822625249624252, -0.010669723153114319, -0.21976372599601746, 0.18248099088668823, -0.20009596645832062, 0.07406628131866455]}, "bias": 0.0, "fa": "relu"}, "neuron_25": {"inputs_names": ["x1", "x2", "x3", "x4", "x5", "x6", "x7", "x8", "x9", "x10", "x11", "x12", "x13", "x14", "x15", "x16", "x17", "x18", "x19", "x20", "x21", "x22", "x23", "x24", "x25", "x26", "x27", "x28", "x29", "x30", "x31"], "outputs_names": ["o25"], "pesos": {"w": [0.03880488872528076, -0.15616358816623688, -0.02519729733467102, 0.19104188680648804, 0.0749230682849884, 0.0036478787660598755, -0.18570081889629364, 0.06007614731788635, 0.13295245170593262, -0.12429020553827286, -0.21441955864429474, -0.22751960158348083, 0.17989128828048706, 0.16412299871444702, -0.029993265867233276, -0.111880823969841, -0.15999914705753326, -0.1648561954498291, 0.042083531618118286, -0.15549319982528687, -0.05286617577075958, 0.2289751172065735, 0.1919403076171875, 0.014053300023078918, -0.02144421637058258, 0.13132122159004211, 0.04847276210784912, -0.1607131063938141, -0.2096613347530365, 0.025852710008621216, -0.07360664010047913]}, "bias": 0.0, "fa": "relu"}, "neuron_26": {"inputs_names": ["x1", "x2", "x3", "x4", "x5", "x6", "x7", "x8", "x9", "x10", "x11", "x12", "x13", "x14", "x15", "x16", "x17", "x18", "x19", "x20", "x21", "x22", "x23", "x24", "x25", "x26", "x27", "x28", "x29", "x30", "x31"], "outputs_names": ["o26"], "pesos": {"w": [0.03593161702156067, 0.1349354386329651, -0.22155310213565826, 0.14506736397743225, -0.04282142221927643, -0.22495901584625244, -0.024384796619415283, -0.22938774526119232, -0.0846133828163147, 0.2237468957901001, 0.22270119190216064, -0.22975504398345947, 0.014071866869926453, 0.02197265625, 0.20674455165863037, -0.08833654224872589, -0.22767077386379242, 0.05210322141647339, 0.23022064566612244, 0.20901307463645935, 0.12886399030685425, -0.0389297753572464, -0.02960103750228882, -0.14014363288879395, 0.22259971499443054, -0.19978627562522888, -0.040844082832336426, -0.16643503308296204, 0.15771126747131348, -0.19175219535827637, 0.174891859292984]}, "bias": 0.0, "fa": "relu"}, "neuron_27": {"inputs_names": ["x1", "x2", "x3", "x4", "x5", "x6", "x7", "x8", "x9", "x10", "x11", "x12", "x13", "x14", "x15", "x16", "x17", "x18", "x19", "x20", "x21", "x22", "x23", "x24", "x25", "x26", "x27", "x28", "x29", "x30", "x31"], "outputs_names": ["o27"], "pesos": {"w": [0.06794169545173645, -0.08842340111732483, 0.1679280400276184, -0.1192634254693985, 0.009721517562866211, -0.21752658486366272, 0.0991036593914032, 0.07855048775672913, -0.13224098086357117, 0.1219782829284668, 0.10388880968093872, -0.21795661747455597, -0.06414841115474701, 0.024428248405456543, -0.03080366551876068, -0.078656867146492, -0.09634506702423096, -0.21736499667167664, 0.17364469170570374, -0.22100427746772766, 0.15674877166748047, 0.19305160641670227, 0.18605652451515198, -0.09621214866638184, -0.16155870258808136, 0.2048516869544983, -0.15404406189918518, 0.0852527916431427, 0.05368122458457947, -0.15182065963745117, -0.18182240426540375]}, "bias": 0.0, "fa": "relu"}, "neuron_28": {"inputs_names": ["x1", "x2", "x3", "x4", "x5", "x6", "x7", "x8", "x9", "x10", "x11", "x12", "x13", "x14", "x15", "x16", "x17", "x18", "x19", "x20", "x21", "x22", "x23", "x24", "x25", "x26", "x27", "x28", "x29", "x30", "x31"], "outputs_names": ["o28"], "pesos": {"w": [0.04743295907974243, 0.032336294651031494, 0.20703911781311035, -0.18278868496418, 0.1327075958251953, -0.11053828150033951, -0.17355012893676758, -0.2142726629972458, 0.21907415986061096, -0.051283612847328186, 0.14472922682762146, 0.029730796813964844, 0.10558629035949707, -0.03400211036205292, 0.11982911825180054, -0.18875041604042053, 0.035077422857284546, 0.00545404851436615, -0.011873751878738403, -0.08668950200080872, 0.10128536820411682, -0.0009173303842544556, -0.12378711253404617, 0.08802750706672668, -0.16224372386932373, -0.060256585478782654, 0.131209135055542, -0.037372708320617676, -0.07069478929042816, -0.062270402908325195, -0.22634851932525635]}, "bias": 0.0, "fa": "relu"}, "neuron_29": {"inputs_names": ["x1", "x2", "x3", "x4", "x5", "x6", "x7", "x8", "x9", "x10", "x11", "x12", "x13", "x14", "x15", "x16", "x17", "x18", "x19", "x20", "x21", "x22", "x23", "x24", "x25", "x26", "x27", "x28", "x29", "x30", "x31"], "outputs_names": ["o29"], "pesos": {"w": [-0.16930510103702545, -0.10996024310588837, 0.12206608057022095, 0.12407800555229187, 0.007078781723976135, -0.21349501609802246, -0.023684367537498474, -0.06404630839824677, 0.08386790752410889, 0.03731778264045715, -0.05341184139251709, -0.15249010920524597, -0.21842634677886963, -0.1367795765399933, -0.07121960818767548, 0.1339399516582489, 0.12772005796432495, 0.03220313787460327, -0.10130572319030762, 0.2310848832130432, -0.006560340523719788, 0.18062153458595276, 0.1993650496006012, -0.17296451330184937, -0.12477822601795197, -0.20925775170326233, 0.20256060361862183, 0.09897556900978088, -0.2210076004266739, -0.1981913447380066, -0.022144034504890442]}, "bias": 0.0, "fa": "relu"}, "neuron_30": {"inputs_names": ["x1", "x2", "x3", "x4", "x5", "x6", "x7", "x8", "x9", "x10", "x11", "x12", "x13", "x14", "x15", "x16", "x17", "x18", "x19", "x20", "x21", "x22", "x23", "x24", "x25", "x26", "x27", "x28", "x29", "x30", "x31"], "outputs_names": ["o30"], "pesos": {"w": [-0.09474560618400574, 0.18193799257278442, -0.10157987475395203, -0.05868983268737793, 0.054237693548202515, -0.11403831839561462, -0.0013988614082336426, 0.16992110013961792, -0.2223251461982727, -0.017348960041999817, -0.03719770908355713, 0.07178577780723572, 0.11901360750198364, -0.15223988890647888, 0.03668636083602905, 0.10449916124343872, 0.2187933623790741, -0.037615448236465454, 0.10351404547691345, 0.07557886838912964, 0.03471505641937256, -0.03038482367992401, -0.2120095193386078, -0.07116472721099854, -0.06424747407436371, 0.0049720704555511475, 0.013905912637710571, -0.09043638408184052, -0.09990192949771881, 0.02745068073272705, 0.14878249168395996]}, "bias": 0.0, "fa": "relu"}, "neuron_31": {"inputs_names": ["x1", "x2", "x3", "x4", "x5", "x6", "x7", "x8", "x9", "x10", "x11", "x12", "x13", "x14", "x15", "x16", "x17", "x18", "x19", "x20", "x21", "x22", "x23", "x24", "x25", "x26", "x27", "x28", "x29", "x30", "x31"], "outputs_names": ["o31"], "pesos": {"w": [-0.0030403435230255127, 0.17452892661094666, 0.08968034386634827, 0.11248424649238586, -0.2002214640378952, 0.08250746130943298, 0.027924060821533203, -0.15587085485458374, -0.07075503468513489, 0.05783963203430176, -0.06537029147148132, 0.1095355749130249, 0.01621130108833313, 0.071536123752594, -0.2168077528476715, -0.03972499072551727, 0.13910573720932007, -0.16389983892440796, 0.18024328351020813, -0.06881344318389893, -0.09074075520038605, -0.027281299233436584, 0.18662065267562866, -0.20204825699329376, -0.1921650469303131, -0.0032865703105926514, -0.03875322639942169, 0.22985175251960754, -0.17840008437633514, 0.17548835277557373, 0.11881116032600403]}, "bias": 0.0, "fa": "relu"}, "neuron_32": {"inputs_names": ["x1", "x2", "x3", "x4", "x5", "x6", "x7", "x8", "x9", "x10", "x11", "x12", "x13", "x14", "x15", "x16", "x17", "x18", "x19", "x20", "x21", "x22", "x23", "x24", "x25", "x26", "x27", "x28", "x29", "x30", "x31"], "outputs_names": ["o32"], "pesos": {"w": [-0.20205596089363098, -0.21793444454669952, -0.20678019523620605, -0.08177508413791656, -0.008660286664962769, 0.12710893154144287, -0.11010414361953735, 0.19703656435012817, -0.0506814569234848, -0.12011435627937317, 0.056754887104034424, -0.08478057384490967, 0.012391418218612671, -0.14882510900497437, -0.06899942457675934, 0.0013097822666168213, 0.1046079695224762, -0.12004822492599487, -0.14067550003528595, -0.13446848094463348, -0.2001914232969284, 0.036985188722610474, 0.05853080749511719, 0.21766799688339233, 0.06044277548789978, 0.20107653737068176, 0.023749440908432007, -0.18799389898777008, 0.13299378752708435, -0.2183433622121811, 0.12951698899269104]}, "bias": 0.0, "fa": "relu"}, "neuron_33": {"inputs_names": ["x1", "x2", "x3", "x4", "x5", "x6", "x7", "x8", "x9", "x10", "x11", "x12", "x13", "x14", "x15", "x16", "x17", "x18", "x19", "x20", "x21", "x22", "x23", "x24", "x25", "x26", "x27", "x28", "x29", "x30", "x31"], "outputs_names": ["o33"], "pesos": {"w": [0.09855124354362488, 0.1372511386871338, 0.12588855624198914, -0.11771656572818756, -0.024420440196990967, -0.1043473333120346, -0.16024979948997498, -0.17539522051811218, 0.20001006126403809, -0.059018924832344055, -0.06525842845439911, 0.045272499322891235, -0.14000928401947021, 0.2088809311389923, 0.03883868455886841, 0.16498860716819763, -0.09470658004283905, 0.18240836262702942, -0.0022864192724227905, -0.17575684189796448, -0.2161044478416443, 0.015375003218650818, -0.208208829164505, 0.12573274970054626, 0.03184843063354492, -0.19122542440891266, 0.23115822672843933, 0.00025326013565063477, 0.019887924194335938, 0.23048722743988037, 0.12450823187828064]}, "bias": 0.0, "fa": "relu"}, "neuron_34": {"inputs_names": ["x1", "x2", "x3", "x4", "x5", "x6", "x7", "x8", "x9", "x10", "x11", "x12", "x13", "x14", "x15", "x16", "x17", "x18", "x19", "x20", "x21", "x22", "x23", "x24", "x25", "x26", "x27", "x28", "x29", "x30", "x31"], "outputs_names": ["o34"], "pesos": {"w": [-0.1614973396062851, 0.15314534306526184, 0.0772695243358612, 0.019339948892593384, -0.21349650621414185, 0.22922638058662415, -0.21404051780700684, 0.15478423237800598, -0.03702060878276825, 0.10748496651649475, -0.024557188153266907, 0.21385109424591064, -0.13821163773536682, 0.09550285339355469, -0.17734190821647644, -0.16053244471549988, -0.12094797939062119, -0.11470471322536469, 0.10460641980171204, -0.02003432810306549, 0.14512407779693604, -0.13415347039699554, -0.20633330941200256, 0.20635923743247986, 0.18084770441055298, -0.16922089457511902, 0.10063093900680542, -0.1419527530670166, 0.04956701397895813, 0.09586474299430847, 0.1773252785205841]}, "bias": 0.0, "fa": "relu"}, "neuron_35": {"inputs_names": ["x1", "x2", "x3", "x4", "x5", "x6", "x7", "x8", "x9", "x10", "x11", "x12", "x13", "x14", "x15", "x16", "x17", "x18", "x19", "x20", "x21", "x22", "x23", "x24", "x25", "x26", "x27", "x28", "x29", "x30", "x31"], "outputs_names": ["o35"], "pesos": {"w": [-0.045048654079437256, 0.04089054465293884, 0.1794094741344452, -0.1728057563304901, 0.07620704174041748, 0.13178211450576782, 0.21196889877319336, 0.014763042330741882, 0.23068556189537048, 0.037264108657836914, -0.12730106711387634, 0.10530108213424683, 0.06204867362976074, 0.12900739908218384, -0.023671284317970276, -0.06267516314983368, -0.000722050666809082, -0.0636485368013382, 0.19969692826271057, -0.04134391248226166, 0.028547078371047974, 0.14979687333106995, -0.2114793211221695, -0.16791090369224548, 0.16236361861228943, 0.10128369927406311, 0.02477368712425232, -0.09716993570327759, -0.04639995098114014, 0.059777677059173584, -0.15278321504592896]}, "bias": 0.0, "fa": "relu"}, "neuron_36": {"inputs_names": ["x1", "x2", "x3", "x4", "x5", "x6", "x7", "x8", "x9", "x10", "x11", "x12", "x13", "x14", "x15", "x16", "x17", "x18", "x19", "x20", "x21", "x22", "x23", "x24", "x25", "x26", "x27", "x28", "x29", "x30", "x31"], "outputs_names": ["o36"], "pesos": {"w": [0.16920489072799683, 0.05258369445800781, -0.09742170572280884, 0.11417019367218018, -0.12936371564865112, -0.009024426341056824, -0.22338660061359406, -0.005766123533248901, 0.15263822674751282, 0.08712181448936462, 0.07885393500328064, -0.16613289713859558, 0.03989177942276001, 0.131264328956604, -0.2169835865497589, 0.1488872468471527, -0.10219256579875946, 0.161207377910614, -0.05410943925380707, -0.17829576134681702, 0.19860413670539856, -0.018089473247528076, 0.20057949423789978, 0.11560052633285522, -0.0629563182592392, 0.21007958054542542, 0.06841367483139038, -0.14295139908790588, 0.17378151416778564, -0.014036059379577637, -0.2120194435119629]}, "bias": 0.0, "fa": "relu"}, "neuron_37": {"inputs_names": ["x1", "x2", "x3", "x4", "x5", "x6", "x7", "x8", "x9", "x10", "x11", "x12", "x13", "x14", "x15", "x16", "x17", "x18", "x19", "x20", "x21", "x22", "x23", "x24", "x25", "x26", "x27", "x28", "x29", "x30", "x31"], "outputs_names": ["o37"], "pesos": {"w": [0.1032031774520874, 0.05546030402183533, -0.16601714491844177, -0.15523943305015564, 0.08785545825958252, 0.1616312563419342, -0.018387138843536377, 0.08343437314033508, -0.11243081092834473, -0.08709937334060669, 0.027640998363494873, 0.18751320242881775, -0.22763800621032715, 0.20260676741600037, 0.10605639219284058, -0.18255753815174103, -0.08995230495929718, 0.04627668857574463, 0.04361000657081604, 0.2027387022972107, 0.06914067268371582, -0.166245698928833, 0.05500099062919617, 0.09490042924880981, -0.22109851241111755, 0.19053390622138977, 0.09937393665313721, -0.22962500154972076, -0.11909408867359161, 0.15105748176574707, 0.1235622763633728]}, "bias": 0.0, "fa": "relu"}, "neuron_38": {"inputs_names": ["x1", "x2", "x3", "x4", "x5", "x6", "x7", "x8", "x9", "x10", "x11", "x12", "x13", "x14", "x15", "x16", "x17", "x18", "x19", "x20", "x21", "x22", "x23", "x24", "x25", "x26", "x27", "x28", "x29", "x30", "x31"], "outputs_names": ["o38"], "pesos": {"w": [-0.11221058666706085, -0.0783182829618454, 0.15528124570846558, 0.16820445656776428, 0.16277453303337097, 0.20352816581726074, -0.04460875689983368, -0.17558878660202026, 0.1384010910987854, -0.08290804922580719, 0.11302170157432556, -0.15167531371116638, 0.003159135580062866, -0.2255515158176422, 0.2315681278705597, -0.18998365104198456, 0.06492605805397034, 0.1844763457775116, -0.10464827716350555, -0.08215346932411194, -0.11364109814167023, -0.13549822568893433, 0.06089538335800171, -0.11690699309110641, -0.06645108759403229, -0.22968436777591705, 0.015590682625770569, -0.03789730370044708, -0.0980086624622345, -0.10614198446273804, -0.09300534427165985]}, "bias": 0.0, "fa": "relu"}, "neuron_39": {"inputs_names": ["x1", "x2", "x3", "x4", "x5", "x6", "x7", "x8", "x9", "x10", "x11", "x12", "x13", "x14", "x15", "x16", "x17", "x18", "x19", "x20", "x21", "x22", "x23", "x24", "x25", "x26", "x27", "x28", "x29", "x30", "x31"], "outputs_names": ["o39"], "pesos": {"w": [-0.1905081421136856, -0.006784006953239441, -0.12460627406835556, 0.009128853678703308, -0.19572356343269348, -0.21451140940189362, -0.1902284324169159, -0.08383813500404358, 0.18409889936447144, -0.16213546693325043, 0.01213255524635315, -0.19147580862045288, 0.15558841824531555, -0.15083259344100952, 0.06310692429542542, 0.011812940239906311, 0.17503002285957336, -0.07598407566547394, 0.12348219752311707, 0.2004217505455017, 0.19664493203163147, 0.19769170880317688, -0.05154357850551605, 0.1596721112728119, -0.06009356677532196, 0.08244121074676514, -0.12255287915468216, -0.0095711350440979, -0.2158747911453247, -0.2026132047176361, -0.20322749018669128]}, "bias": 0.0, "fa": "relu"}, "neuron_40": {"inputs_names": ["x1", "x2", "x3", "x4", "x5", "x6", "x7", "x8", "x9", "x10", "x11", "x12", "x13", "x14", "x15", "x16", "x17", "x18", "x19", "x20", "x21", "x22", "x23", "x24", "x25", "x26", "x27", "x28", "x29", "x30", "x31"], "outputs_names": ["o40"], "pesos": {"w": [0.08814951777458191, 0.008188188076019287, -0.18687236309051514, 0.16803744435310364, 0.16489556431770325, 0.19596445560455322, 0.004842638969421387, -0.10818955302238464, 0.1426817774772644, -0.12204928696155548, 0.07382598519325256, 0.1651853322982788, -0.08283111453056335, 0.09964928030967712, 0.0687757134437561, -0.19869355857372284, -0.193496435880661, -0.12272987514734268, -0.13848835229873657, 0.2019069492816925, -0.15907488763332367, 0.04809015989303589, -0.18327131867408752, -0.13651300966739655, 0.17585662007331848, -0.09669916331768036, 0.23189938068389893, 0.001047864556312561, -0.00828784704208374, -0.0976758599281311, -0.1176520437002182]}, "bias": 0.0, "fa": "relu"}, "neuron_41": {"inputs_names": ["x1", "x2", "x3", "x4", "x5", "x6", "x7", "x8", "x9", "x10", "x11", "x12", "x13", "x14", "x15", "x16", "x17", "x18", "x19", "x20", "x21", "x22", "x23", "x24", "x25", "x26", "x27", "x28", "x29", "x30", "x31"], "outputs_names": ["o41"], "pesos": {"w": [-0.2019766867160797, 0.00160999596118927, 0.10564586520195007, -0.2067042589187622, 0.21506276726722717, -0.2224811315536499, -0.12649929523468018, -0.14250865578651428, 0.016548767685890198, 0.04224082827568054, -0.1182059645652771, -0.1386963278055191, 0.14045122265815735, -0.10490813851356506, 0.09814181923866272, 0.09861347079277039, -0.22544093430042267, -0.1457567662000656, -0.15796959400177002, 0.12938228249549866, 0.1361033022403717, -0.06777361035346985, 0.2262764573097229, -0.20642365515232086, -0.011986717581748962, -0.024431079626083374, 0.13154548406600952, 0.10872766375541687, 0.16249892115592957, -0.206313356757164, 0.07074233889579773]}, "bias": 0.0, "fa": "relu"}, "neuron_42": {"inputs_names": ["x1", "x2", "x3", "x4", "x5", "x6", "x7", "x8", "x9", "x10", "x11", "x12", "x13", "x14", "x15", "x16", "x17", "x18", "x19", "x20", "x21", "x22", "x23", "x24", "x25", "x26", "x27", "x28", "x29", "x30", "x31"], "outputs_names": ["o42"], "pesos": {"w": [-0.17199240624904633, 0.10592767596244812, -0.17399996519088745, -0.1502404808998108, 0.19762557744979858, 0.14990240335464478, 0.03161773085594177, -0.09042713046073914, -0.02712753415107727, 0.221520334482193, 0.09214943647384644, -0.006967648863792419, -0.04040125012397766, 0.0077432990074157715, 0.13199713826179504, -0.21953563392162323, -0.20603187382221222, -0.061550021171569824, -0.051613032817840576, -0.12762406468391418, -0.006249144673347473, -0.05462716519832611, -0.03450220823287964, -0.06028696894645691, -0.12389913946390152, 0.22676613926887512, -0.2242102026939392, -0.06278170645236969, -0.0632583498954773, 0.13514059782028198, 0.06526628136634827]}, "bias": 0.0, "fa": "relu"}, "neuron_43": {"inputs_names": ["x1", "x2", "x3", "x4", "x5", "x6", "x7", "x8", "x9", "x10", "x11", "x12", "x13", "x14", "x15", "x16", "x17", "x18", "x19", "x20", "x21", "x22", "x23", "x24", "x25", "x26", "x27", "x28", "x29", "x30", "x31"], "outputs_names": ["o43"], "pesos": {"w": [0.09153807163238525, -0.055167555809020996, -0.14694610238075256, 0.1757912039756775, 0.08677443861961365, 0.01080542802810669, -0.13852731883525848, -0.04652222990989685, 0.050873637199401855, 0.13568252325057983, -0.12896955013275146, 0.22788456082344055, -0.1123935654759407, -0.19745516777038574, -0.17139269411563873, 0.11147645115852356, 0.09880611300468445, 0.0034025907516479492, -0.010873600840568542, 0.06863954663276672, 0.1446443796157837, -0.025568857789039612, -0.10534143447875977, -0.0581565797328949, 0.04814577102661133, -0.09622600674629211, 0.19711598753929138, 0.10779416561126709, 0.054817408323287964, -0.02478872239589691, 0.028678089380264282]}, "bias": 0.0, "fa": "relu"}, "neuron_44": {"inputs_names": ["x1", "x2", "x3", "x4", "x5", "x6", "x7", "x8", "x9", "x10", "x11", "x12", "x13", "x14", "x15", "x16", "x17", "x18", "x19", "x20", "x21", "x22", "x23", "x24", "x25", "x26", "x27", "x28", "x29", "x30", "x31"], "outputs_names": ["o44"], "pesos": {"w": [-0.18941792845726013, -0.06127697229385376, 0.15246781706809998, -0.19182103872299194, 0.20436710119247437, 0.21194714307785034, 0.0702241063117981, 0.10847452282905579, 0.10614585876464844, 0.1711370348930359, 0.04629591107368469, -0.002652600407600403, 0.0855155885219574, 0.162629634141922, -0.09117011725902557, -0.13885396718978882, 0.0022356510162353516, 0.11039561033248901, 0.22468531131744385, 0.1185569167137146, -0.1272808313369751, -0.08700540661811829, -0.15367954969406128, -0.21368475258350372, 0.07787662744522095, -0.1290494203567505, -0.0507122278213501, -0.10603532195091248, 0.07748770713806152, -0.08224049210548401, 0.030764877796173096]}, "bias": 0.0, "fa": "relu"}, "neuron_45": {"inputs_names": ["x1", "x2", "x3", "x4", "x5", "x6", "x7", "x8", "x9", "x10", "x11", "x12", "x13", "x14", "x15", "x16", "x17", "x18", "x19", "x20", "x21", "x22", "x23", "x24", "x25", "x26", "x27", "x28", "x29", "x30", "x31"], "outputs_names": ["o45"], "pesos": {"w": [0.1866719126701355, -0.08801409602165222, 0.011826127767562866, 0.1272180676460266, -0.0591813325881958, -0.15678580105304718, 0.015811249613761902, 0.1072012186050415, 0.0925402045249939, 0.20821097493171692, 0.1763252317905426, 0.028761237859725952, -0.13002416491508484, -0.014354512095451355, 0.13781863451004028, -0.2071343958377838, -0.035422757267951965, 0.0852193534374237, 0.052729636430740356, 0.18642640113830566, -0.21971644461154938, -0.043683379888534546, 0.02787962555885315, -0.09483955800533295, -0.020362481474876404, 0.055185914039611816, -0.1703508198261261, -0.01990640163421631, -0.21025317907333374, -0.14967873692512512, -0.08717973530292511]}, "bias": 0.0, "fa": "relu"}, "neuron_46": {"inputs_names": ["x1", "x2", "x3", "x4", "x5", "x6", "x7", "x8", "x9", "x10", "x11", "x12", "x13", "x14", "x15", "x16", "x17", "x18", "x19", "x20", "x21", "x22", "x23", "x24", "x25", "x26", "x27", "x28", "x29", "x30", "x31"], "outputs_names": ["o46"], "pesos": {"w": [-0.1425408124923706, -0.11365046352148056, -0.1311156153678894, -0.055274322628974915, 0.08118385076522827, -0.030112892389297485, -0.17569077014923096, 0.16747653484344482, -0.20472076535224915, 0.19850364327430725, 0.012731775641441345, -0.10344995558261871, 0.08847960829734802, -0.18903538584709167, -0.08042806386947632, 0.04969412088394165, 0.187860369682312, -0.20416024327278137, 0.1593068242073059, -0.02547594904899597, 0.14236599206924438, -0.017709553241729736, 0.15530678629875183, -0.01212368905544281, 0.11158189177513123, 0.02931883931159973, -0.1732785701751709, 0.22680115699768066, -0.15623825788497925, 0.01954028010368347, 0.08559340238571167]}, "bias": 0.0, "fa": "relu"}, "neuron_47": {"inputs_names": ["x1", "x2", "x3", "x4", "x5", "x6", "x7", "x8", "x9", "x10", "x11", "x12", "x13", "x14", "x15", "x16", "x17", "x18", "x19", "x20", "x21", "x22", "x23", "x24", "x25", "x26", "x27", "x28", "x29", "x30", "x31"], "outputs_names": ["o47"], "pesos": {"w": [-0.1764373779296875, 0.09820970892906189, -0.17714518308639526, 0.17395344376564026, 0.08532994985580444, -0.129812091588974, 0.046137601137161255, 0.20022428035736084, -0.1093873605132103, -0.08262108266353607, 0.10360977053642273, -0.05981363356113434, -0.13234224915504456, 0.18944913148880005, -0.1791778951883316, -0.10971324145793915, 0.18642142415046692, -0.21099069714546204, -0.005720004439353943, 0.22702842950820923, 0.18874609470367432, 0.15106630325317383, -0.19042766094207764, 0.06210505962371826, 0.1388140618801117, -0.21139878034591675, 0.15151330828666687, 0.10379928350448608, 0.22824668884277344, -0.017931386828422546, 0.19941836595535278]}, "bias": 0.0, "fa": "relu"}, "neuron_48": {"inputs_names": ["x1", "x2", "x3", "x4", "x5", "x6", "x7", "x8", "x9", "x10", "x11", "x12", "x13", "x14", "x15", "x16", "x17", "x18", "x19", "x20", "x21", "x22", "x23", "x24", "x25", "x26", "x27", "x28", "x29", "x30", "x31"], "outputs_names": ["o48"], "pesos": {"w": [-0.187867671251297, 0.15790069103240967, -0.15349650382995605, -0.03277912735939026, 0.122905433177948, 0.0086899995803833, -0.13053253293037415, 0.21494033932685852, 0.01455184817314148, 0.05257466435432434, 0.13893434405326843, -0.007511764764785767, -0.14273998141288757, -0.2165980041027069, -0.12426337599754333, -0.22074048221111298, 0.12278994917869568, 0.17996901273727417, 0.09477543830871582, 0.04186868667602539, -0.05594615638256073, -0.21019071340560913, 0.13629072904586792, 0.17962118983268738, 0.01879018545150757, 0.11541211605072021, -0.15574941039085388, -0.14824989438056946, 0.0829201340675354, -0.19194042682647705, 0.19120913743972778]}, "bias": 0.0, "fa": "relu"}, "neuron_49": {"inputs_names": ["x1", "x2", "x3", "x4", "x5", "x6", "x7", "x8", "x9", "x10", "x11", "x12", "x13", "x14", "x15", "x16", "x17", "x18", "x19", "x20", "x21", "x22", "x23", "x24", "x25", "x26", "x27", "x28", "x29", "x30", "x31"], "outputs_names": ["o49"], "pesos": {"w": [0.1303430199623108, 0.16789409518241882, 0.18812838196754456, -0.1010362058877945, 0.05521556735038757, 0.025194257497787476, 0.016863390803337097, -0.03136850893497467, -0.14416439831256866, 0.2031334936618805, -0.08503022789955139, -0.026868879795074463, 0.12164980173110962, -0.20937448740005493, -0.12351394444704056, -0.20968672633171082, -0.09723761677742004, 0.048410892486572266, 0.17477411031723022, 0.07984942197799683, 0.16270911693572998, 0.029162466526031494, -0.20892077684402466, 0.06993860006332397, -0.2244349718093872, 0.003464832901954651, -0.12862637639045715, -0.10580690205097198, -0.017170697450637817, 0.09919106960296631, -0.1559598743915558]}, "bias": 0.0, "fa": "relu"}, "neuron_50": {"inputs_names": ["x1", "x2", "x3", "x4", "x5", "x6", "x7", "x8", "x9", "x10", "x11", "x12", "x13", "x14", "x15", "x16", "x17", "x18", "x19", "x20", "x21", "x22", "x23", "x24", "x25", "x26", "x27", "x28", "x29", "x30", "x31"], "outputs_names": ["o50"], "pesos": {"w": [0.07464548945426941, -0.00014966726303100586, 0.011579856276512146, -0.009364932775497437, 0.05784633755683899, 0.11481380462646484, -0.06048102676868439, 0.08781120181083679, -0.2128596007823944, 0.008484244346618652, 0.19531840085983276, 0.15925931930541992, 0.0766211450099945, 0.18818068504333496, -0.06723953783512115, 0.0577985942363739, 0.04259830713272095, 0.021150648593902588, -0.09448607265949249, 0.03656163811683655, 0.06057471036911011, -0.15701034665107727, 0.003162965178489685, -0.19904649257659912, -0.23068112134933472, 0.046310752630233765, -0.23116238415241241, 0.11170321702957153, 0.19035819172859192, 0.0462077260017395, 0.07409963011741638]}, "bias": 0.0, "fa": "relu"}, "neuron_51": {"inputs_names": ["x1", "x2", "x3", "x4", "x5", "x6", "x7", "x8", "x9", "x10", "x11", "x12", "x13", "x14", "x15", "x16", "x17", "x18", "x19", "x20", "x21", "x22", "x23", "x24", "x25", "x26", "x27", "x28", "x29", "x30", "x31"], "outputs_names": ["o51"], "pesos": {"w": [0.16380992531776428, 0.14743083715438843, -0.2222071886062622, 0.2089676856994629, -0.053008243441581726, 0.05076754093170166, -0.10443037748336792, -0.18834516406059265, 0.16706064343452454, 0.04265546798706055, -0.10924701392650604, -0.01649022102355957, 0.04947343468666077, 0.12996330857276917, 0.21551397442817688, 0.030846118927001953, 0.038862645626068115, 0.07358819246292114, 0.06379303336143494, 0.10237142443656921, 0.21672356128692627, 0.15416517853736877, -0.15913154184818268, 0.19726377725601196, -0.047481194138526917, 0.055391162633895874, 0.1979292631149292, 0.18670034408569336, -0.11387501657009125, -0.11454568058252335, 0.1472480297088623]}, "bias": 0.0, "fa": "relu"}, "neuron_52": {"inputs_names": ["x1", "x2", "x3", "x4", "x5", "x6", "x7", "x8", "x9", "x10", "x11", "x12", "x13", "x14", "x15", "x16", "x17", "x18", "x19", "x20", "x21", "x22", "x23", "x24", "x25", "x26", "x27", "x28", "x29", "x30", "x31"], "outputs_names": ["o52"], "pesos": {"w": [0.011412397027015686, -0.024400144815444946, -0.05968792736530304, -0.10762248933315277, -0.02979099750518799, -0.1451776772737503, -0.11465732008218765, -0.04046587646007538, 0.036387860774993896, -0.16159063577651978, 0.18562164902687073, 0.10636270046234131, -0.13021662831306458, -0.12749838829040527, 0.20249071717262268, 0.2028619349002838, 0.17858141660690308, -0.08764214813709259, -0.08669660985469818, -0.11417423188686371, -0.20765428245067596, -0.17002515494823456, 0.06426677107810974, -0.1703069657087326, 0.05663260817527771, -0.022089272737503052, 0.13963311910629272, 0.1705757975578308, -0.20604972541332245, -0.01602254807949066, 0.04090729355812073]}, "bias": 0.0, "fa": "relu"}, "neuron_53": {"inputs_names": ["x1", "x2", "x3", "x4", "x5", "x6", "x7", "x8", "x9", "x10", "x11", "x12", "x13", "x14", "x15", "x16", "x17", "x18", "x19", "x20", "x21", "x22", "x23", "x24", "x25", "x26", "x27", "x28", "x29", "x30", "x31"], "outputs_names": ["o53"], "pesos": {"w": [0.11587309837341309, 0.14773377776145935, -0.22690138220787048, 0.20399361848831177, -0.10214345157146454, -0.10494394600391388, 0.18927264213562012, 0.16255319118499756, 0.07765328884124756, 0.15812817215919495, 0.21043863892555237, -0.0547960102558136, 0.009449571371078491, -0.07164287567138672, -0.0574977844953537, 0.028311699628829956, -0.19042477011680603, 0.2279120683670044, 0.024011462926864624, 0.0528140664100647, 0.14868813753128052, -0.1390194296836853, 0.04825523495674133, 0.17185300588607788, -0.0025878548622131348, -0.1361362338066101, 0.22907721996307373, 0.0023577064275741577, 0.10005924105644226, -0.03438590466976166, 0.09085965156555176]}, "bias": 0.0, "fa": "relu"}, "neuron_54": {"inputs_names": ["x1", "x2", "x3", "x4", "x5", "x6", "x7", "x8", "x9", "x10", "x11", "x12", "x13", "x14", "x15", "x16", "x17", "x18", "x19", "x20", "x21", "x22", "x23", "x24", "x25", "x26", "x27", "x28", "x29", "x30", "x31"], "outputs_names": ["o54"], "pesos": {"w": [0.222844660282135, 0.17860952019691467, 0.07738339900970459, 0.13191980123519897, 0.015638083219528198, -0.013832464814186096, -0.17728093266487122, -0.2169937789440155, 0.032468318939208984, -0.10345445573329926, -0.1623389571905136, -0.12426798045635223, -0.19637642800807953, 0.22943180799484253, 0.16980332136154175, 0.146335631608963, -0.184380441904068, 0.1421392858028412, 0.20422568917274475, 0.1466357409954071, -0.09402410686016083, -0.06499657034873962, 0.1917530596256256, -0.15943613648414612, 0.04854103922843933, -0.1907324194908142, -0.01463627815246582, -0.020997285842895508, -0.09419327974319458, 0.08397841453552246, -0.18376338481903076]}, "bias": 0.0, "fa": "relu"}, "neuron_55": {"inputs_names": ["x1", "x2", "x3", "x4", "x5", "x6", "x7", "x8", "x9", "x10", "x11", "x12", "x13", "x14", "x15", "x16", "x17", "x18", "x19", "x20", "x21", "x22", "x23", "x24", "x25", "x26", "x27", "x28", "x29", "x30", "x31"], "outputs_names": ["o55"], "pesos": {"w": [0.2276199460029602, -0.04951789975166321, 0.17453640699386597, -0.045143380761146545, 0.11455243825912476, -0.09494121372699738, -0.02651374042034149, -0.1544683277606964, -0.005653813481330872, 0.12720483541488647, -0.07763786613941193, -0.11603700369596481, 0.11590966582298279, 0.07075148820877075, -0.1204342469573021, 0.11435860395431519, -0.2181244045495987, 0.1871318221092224, 0.23090091347694397, 0.06935352087020874, 0.11155521869659424, 0.08844834566116333, 0.010849609971046448, 0.045726627111434937, -0.14520107209682465, 0.15456590056419373, -0.180853471159935, -0.07360319793224335, -0.1530712991952896, -0.10793506354093552, -0.03748562932014465]}, "bias": 0.0, "fa": "relu"}, "neuron_56": {"inputs_names": ["x1", "x2", "x3", "x4", "x5", "x6", "x7", "x8", "x9", "x10", "x11", "x12", "x13", "x14", "x15", "x16", "x17", "x18", "x19", "x20", "x21", "x22", "x23", "x24", "x25", "x26", "x27", "x28", "x29", "x30", "x31"], "outputs_names": ["o56"], "pesos": {"w": [0.08080077171325684, 0.2245045304298401, -0.0849066823720932, 0.0770551860332489, 0.205133318901062, 0.2056891918182373, 0.15258949995040894, -0.00235670804977417, -0.06666992604732513, -0.2227628380060196, -0.2277643382549286, 0.1812470257282257, -0.12402934581041336, -0.2136172354221344, -0.1180577427148819, 0.13433018326759338, -0.07120069861412048, -0.17381049692630768, -0.029675915837287903, -0.10269427299499512, 0.15505212545394897, 0.08472469449043274, -0.1803991049528122, -0.11581006646156311, -0.11403066664934158, -0.1320262849330902, -0.053040772676467896, 0.05215814709663391, 0.19619682431221008, 0.11115345358848572, -0.026173174381256104]}, "bias": 0.0, "fa": "relu"}, "neuron_57": {"inputs_names": ["x1", "x2", "x3", "x4", "x5", "x6", "x7", "x8", "x9", "x10", "x11", "x12", "x13", "x14", "x15", "x16", "x17", "x18", "x19", "x20", "x21", "x22", "x23", "x24", "x25", "x26", "x27", "x28", "x29", "x30", "x31"], "outputs_names": ["o57"], "pesos": {"w": [-0.18246829509735107, 0.19442135095596313, -0.06475837528705597, -0.051910653710365295, 0.06515797972679138, 0.07420319318771362, -0.21569840610027313, 0.11771383881568909, 0.15420830249786377, -0.16240541636943817, 0.0027240514755249023, -0.06961825489997864, 0.18989905714988708, -0.04811832308769226, 0.009381666779518127, -0.20554783940315247, -0.004633665084838867, -0.20288953185081482, -0.10310190916061401, -0.0018239617347717285, -0.01614278554916382, 0.18297943472862244, 0.10994532704353333, 0.15650826692581177, -0.1796272248029709, -0.004647016525268555, 0.009905382990837097, -0.005797713994979858, -0.07006047666072845, 0.20556125044822693, -0.0979754626750946]}, "bias": 0.0, "fa": "relu"}, "neuron_58": {"inputs_names": ["x1", "x2", "x3", "x4", "x5", "x6", "x7", "x8", "x9", "x10", "x11", "x12", "x13", "x14", "x15", "x16", "x17", "x18", "x19", "x20", "x21", "x22", "x23", "x24", "x25", "x26", "x27", "x28", "x29", "x30", "x31"], "outputs_names": ["o58"], "pesos": {"w": [-0.07843835651874542, 0.13483387231826782, 0.029188454151153564, 0.07777616381645203, 0.21801838278770447, 0.007001012563705444, -0.19198505580425262, -0.005566626787185669, -0.13791075348854065, 0.12449342012405396, -0.029848366975784302, 0.2103361189365387, -0.02376478910446167, -0.12584960460662842, -0.1616523265838623, -0.1566181182861328, -0.02996942400932312, 0.1265050172805786, 0.14973092079162598, -0.21490751206874847, -0.0987384170293808, -0.19969968497753143, 0.005355700850486755, -0.09221017360687256, -0.14800643920898438, -0.2296186238527298, -0.17373044788837433, -0.04153697192668915, -0.028411149978637695, -0.06817914545536041, 0.12260547280311584]}, "bias": 0.0, "fa": "relu"}, "neuron_59": {"inputs_names": ["x1", "x2", "x3", "x4", "x5", "x6", "x7", "x8", "x9", "x10", "x11", "x12", "x13", "x14", "x15", "x16", "x17", "x18", "x19", "x20", "x21", "x22", "x23", "x24", "x25", "x26", "x27", "x28", "x29", "x30", "x31"], "outputs_names": ["o59"], "pesos": {"w": [0.18722566962242126, -0.22429706156253815, 0.18674325942993164, 0.10711595416069031, -0.129860982298851, 0.16515225172042847, 0.19834959506988525, 0.03864529728889465, 0.23226985335350037, 0.03261089324951172, -0.06062176823616028, 0.041532307863235474, 0.05813091993331909, 0.15396922826766968, 0.1591297686100006, 0.18650218844413757, -0.0421546995639801, -0.0648614764213562, -0.11498613655567169, -0.07102510333061218, -0.09692870080471039, -0.08916163444519043, 0.017073914408683777, 0.109046071767807, 0.13061904907226562, -0.004508212208747864, -0.146483913064003, -0.16809287667274475, 0.05471944808959961, -0.23211835324764252, -0.013194620609283447]}, "bias": 0.0, "fa": "relu"}, "neuron_60": {"inputs_names": ["x1", "x2", "x3", "x4", "x5", "x6", "x7", "x8", "x9", "x10", "x11", "x12", "x13", "x14", "x15", "x16", "x17", "x18", "x19", "x20", "x21", "x22", "x23", "x24", "x25", "x26", "x27", "x28", "x29", "x30", "x31"], "outputs_names": ["o60"], "pesos": {"w": [0.22545352578163147, -0.04465171694755554, 0.2180894911289215, 0.08047422766685486, 0.08586689829826355, 0.09632095694541931, -0.08986461162567139, 0.17342612147331238, 0.12223726511001587, 0.2129652500152588, -0.1198023334145546, -0.0955294519662857, -0.029123276472091675, 0.04757937788963318, 0.04897072911262512, -0.17410965263843536, -0.06733638048171997, -0.05403599143028259, 0.16332823038101196, 0.15257656574249268, 0.1688610017299652, -0.0634564608335495, 0.04935494065284729, 0.22492381930351257, -0.2197730392217636, 0.11325863003730774, -0.15991079807281494, -0.07124194502830505, -0.20986217260360718, -0.1642097532749176, 0.05838805437088013]}, "bias": 0.0, "fa": "relu"}, "neuron_61": {"inputs_names": ["x1", "x2", "x3", "x4", "x5", "x6", "x7", "x8", "x9", "x10", "x11", "x12", "x13", "x14", "x15", "x16", "x17", "x18", "x19", "x20", "x21", "x22", "x23", "x24", "x25", "x26", "x27", "x28", "x29", "x30", "x31"], "outputs_names": ["o61"], "pesos": {"w": [0.19578596949577332, -0.01493971049785614, -0.1216065064072609, 0.03954532742500305, -0.19362160563468933, -0.2272215485572815, -0.04980543255805969, 0.04571199417114258, 0.10280635952949524, -0.19286923110485077, -0.20451731979846954, -0.19012826681137085, 0.18989375233650208, -0.16072790324687958, 0.00810648500919342, 0.13343030214309692, -0.14014191925525665, 0.15661701560020447, 0.2011585831642151, 0.1646888554096222, -0.1950327754020691, -0.09390759468078613, -0.022796571254730225, -0.20705518126487732, -0.07951277494430542, 0.15788167715072632, 0.10350915789604187, -0.166367307305336, -0.12367924302816391, -0.16599148511886597, -0.07616539299488068]}, "bias": 0.0, "fa": "relu"}, "neuron_62": {"inputs_names": ["x1", "x2", "x3", "x4", "x5", "x6", "x7", "x8", "x9", "x10", "x11", "x12", "x13", "x14", "x15", "x16", "x17", "x18", "x19", "x20", "x21", "x22", "x23", "x24", "x25", "x26", "x27", "x28", "x29", "x30", "x31"], "outputs_names": ["o62"], "pesos": {"w": [0.024264603853225708, 0.22136369347572327, -0.13501718640327454, 0.1080884039402008, -0.2134939581155777, 0.018367618322372437, 0.06085047125816345, 0.05955350399017334, 0.09536305069923401, -0.01857726275920868, 0.00936482846736908, -0.05210915207862854, -0.1524433195590973, -0.055549368262290955, 0.08234557509422302, 0.16621574759483337, -0.13420900702476501, 0.03424006700515747, -0.10269670188426971, 0.15301957726478577, -0.14588996767997742, -0.17539161443710327, 0.04178959131240845, 0.07364839315414429, -0.13784313201904297, 0.01390191912651062, -0.23154081404209137, 0.11907896399497986, 0.1445549726486206, 0.06142711639404297, 0.09859302639961243]}, "bias": 0.0, "fa": "relu"}, "neuron_63": {"inputs_names": ["x1", "x2", "x3", "x4", "x5", "x6", "x7", "x8", "x9", "x10", "x11", "x12", "x13", "x14", "x15", "x16", "x17", "x18", "x19", "x20", "x21", "x22", "x23", "x24", "x25", "x26", "x27", "x28", "x29", "x30", "x31"], "outputs_names": ["o63"], "pesos": {"w": [-0.15979105234146118, 0.22295790910720825, -0.00011673569679260254, -0.02105891704559326, 0.10286810994148254, 0.044454872608184814, 0.13098108768463135, 0.14361053705215454, -0.21779537200927734, 0.16593605279922485, -0.22234460711479187, -0.07893934845924377, 0.08118507266044617, -0.07090608775615692, 0.18479013442993164, 0.22006827592849731, -0.14137022197246552, -0.11974485218524933, 0.033858269453048706, 0.17100295424461365, -0.22603094577789307, -0.04197920858860016, 0.028989583253860474, -0.07203887403011322, -0.08050255477428436, 0.08908453583717346, -0.024477466940879822, -0.21593138575553894, 0.17888998985290527, 0.005092844367027283, 0.07630845904350281]}, "bias": 0.0, "fa": "relu"}, "neuron_64": {"inputs_names": ["x1", "x2", "x3", "x4", "x5", "x6", "x7", "x8", "x9", "x10", "x11", "x12", "x13", "x14", "x15", "x16", "x17", "x18", "x19", "x20", "x21", "x22", "x23", "x24", "x25", "x26", "x27", "x28", "x29", "x30", "x31"], "outputs_names": ["o64"], "pesos": {"w": [0.199456125497818, -0.038860708475112915, 0.010008051991462708, 0.1404130458831787, -0.1242249608039856, -0.013698384165763855, -0.014752566814422607, 0.03504747152328491, -0.16570794582366943, 0.03818395733833313, -0.0026003271341323853, -0.038983047008514404, 0.16815057396888733, 0.10110512375831604, -0.11169368773698807, -0.050331130623817444, 0.06515127420425415, 0.15158700942993164, -0.16119146347045898, -0.19134975969791412, -0.03169865906238556, 0.07246330380439758, 0.11184373497962952, 0.020952939987182617, 0.025328397750854492, 0.10281282663345337, 0.12736746668815613, -0.06850413978099823, 0.028863847255706787, -0.06193704903125763, 0.11120638251304626]}, "bias": 0.0, "fa": "relu"}, "neuron_65": {"inputs_names": ["x1", "x2", "x3", "x4", "x5", "x6", "x7", "x8", "x9", "x10", "x11", "x12", "x13", "x14", "x15", "x16", "x17", "x18", "x19", "x20", "x21", "x22", "x23", "x24", "x25", "x26", "x27", "x28", "x29", "x30", "x31"], "outputs_names": ["o65"], "pesos": {"w": [0.15388116240501404, -0.08622294664382935, -0.03279182314872742, 0.14289873838424683, 0.12095314264297485, 0.2222486138343811, -0.030627280473709106, -0.10749316215515137, 0.17101165652275085, -0.17356327176094055, -0.179767906665802, 0.000501483678817749, -0.16284403204917908, -0.03142094612121582, -0.22058787941932678, -0.20291370153427124, -0.021389678120613098, 0.1379929780960083, -0.1908876895904541, 0.1549299657344818, -0.184523344039917, -0.044097840785980225, 0.0618666410446167, -0.05987843871116638, -0.03907361626625061, -0.21591447293758392, -0.19795416295528412, 0.1272386908531189, -0.0018755197525024414, 0.10143354535102844, -8.830428123474121e-05]}, "bias": 0.0, "fa": "relu"}, "neuron_66": {"inputs_names": ["x1", "x2", "x3", "x4", "x5", "x6", "x7", "x8", "x9", "x10", "x11", "x12", "x13", "x14", "x15", "x16", "x17", "x18", "x19", "x20", "x21", "x22", "x23", "x24", "x25", "x26", "x27", "x28", "x29", "x30", "x31"], "outputs_names": ["o66"], "pesos": {"w": [0.21850323677062988, 0.1736280620098114, -0.09999965131282806, 0.10157027840614319, -0.15568140149116516, -0.10075046122074127, -0.08201394975185394, -0.046742185950279236, 0.22082719206809998, -0.19361206889152527, -0.22698281705379486, -0.16825073957443237, -0.19028060138225555, 0.13965857028961182, 0.11691376566886902, 0.2217545509338379, -0.16810601949691772, 0.0620003342628479, -0.09523788094520569, 0.14903950691223145, 0.18276435136795044, -0.1251552700996399, -0.16035279631614685, 0.032737553119659424, -0.0568617582321167, 0.168483167886734, 0.014671355485916138, 0.04106324911117554, -0.05489739775657654, -0.152202308177948, 0.07010021805763245]}, "bias": 0.0, "fa": "relu"}, "neuron_67": {"inputs_names": ["x1", "x2", "x3", "x4", "x5", "x6", "x7", "x8", "x9", "x10", "x11", "x12", "x13", "x14", "x15", "x16", "x17", "x18", "x19", "x20", "x21", "x22", "x23", "x24", "x25", "x26", "x27", "x28", "x29", "x30", "x31"], "outputs_names": ["o67"], "pesos": {"w": [-0.16835308074951172, -0.09329690039157867, 0.09163707494735718, -0.08790671825408936, 0.19044733047485352, 0.22434061765670776, -0.12386371940374374, 0.14179766178131104, 0.18921610713005066, -0.040245428681373596, 0.11409670114517212, 0.06080740690231323, -0.17998918890953064, -0.13216260075569153, -0.10119950771331787, 0.029222995042800903, -0.14237374067306519, 0.003931790590286255, 0.15461069345474243, 0.14903944730758667, -0.12988105416297913, 0.21068322658538818, 0.1185716986656189, 0.18173101544380188, -0.00990954041481018, 0.014774471521377563, -0.10978386551141739, -0.16245681047439575, 0.21125155687332153, -0.021707192063331604, 0.026019692420959473]}, "bias": 0.0, "fa": "relu"}, "neuron_68": {"inputs_names": ["x1", "x2", "x3", "x4", "x5", "x6", "x7", "x8", "x9", "x10", "x11", "x12", "x13", "x14", "x15", "x16", "x17", "x18", "x19", "x20", "x21", "x22", "x23", "x24", "x25", "x26", "x27", "x28", "x29", "x30", "x31"], "outputs_names": ["o68"], "pesos": {"w": [-0.02312411367893219, 0.022513538599014282, -0.010444462299346924, 0.07196387648582458, -0.05249854922294617, 0.1582348346710205, -0.18636982142925262, 0.17260277271270752, -0.04239073395729065, -0.06923782825469971, -0.21916162967681885, 0.1606878936290741, 0.13959452509880066, -0.2014784812927246, 0.021181881427764893, -0.1858033686876297, -0.03909002244472504, -0.2203102856874466, -0.1534903645515442, 0.08878141641616821, -0.013395890593528748, -0.13777732849121094, 0.10391169786453247, 0.1369016468524933, -0.09311126172542572, 0.1962171196937561, -0.07918307185173035, 0.08865609765052795, 0.22020891308784485, -0.10459983348846436, 0.1315765380859375]}, "bias": 0.0, "fa": "relu"}, "neuron_69": {"inputs_names": ["x1", "x2", "x3", "x4", "x5", "x6", "x7", "x8", "x9", "x10", "x11", "x12", "x13", "x14", "x15", "x16", "x17", "x18", "x19", "x20", "x21", "x22", "x23", "x24", "x25", "x26", "x27", "x28", "x29", "x30", "x31"], "outputs_names": ["o69"], "pesos": {"w": [-0.15640327334403992, -0.21961672604084015, 0.026166021823883057, -0.18341811001300812, -0.05553717911243439, 0.038549959659576416, -0.01426742970943451, -0.13260123133659363, -0.15170907974243164, 0.18007051944732666, 0.042986512184143066, -0.08801957964897156, 0.19394055008888245, -0.19062387943267822, 0.10104894638061523, 0.07445678114891052, -0.09675665199756622, -0.09844724833965302, -0.1349790096282959, -0.22572502493858337, -0.12929746508598328, 0.030672401189804077, -0.2044300138950348, 0.11481788754463196, 0.0723162591457367, -0.168165385723114, -0.061136290431022644, 0.15438586473464966, 0.09833505749702454, 0.01781398057937622, 0.04969823360443115]}, "bias": 0.0, "fa": "relu"}, "neuron_70": {"inputs_names": ["x1", "x2", "x3", "x4", "x5", "x6", "x7", "x8", "x9", "x10", "x11", "x12", "x13", "x14", "x15", "x16", "x17", "x18", "x19", "x20", "x21", "x22", "x23", "x24", "x25", "x26", "x27", "x28", "x29", "x30", "x31"], "outputs_names": ["o70"], "pesos": {"w": [0.1722429096698761, -0.13439038395881653, 0.08184206485748291, 0.09467726945877075, 0.07771608233451843, -0.08589063584804535, 0.16655930876731873, 0.18069100379943848, -0.21462509036064148, 0.10422983765602112, 0.2047206461429596, 0.20964521169662476, -0.07142780721187592, -0.05367845296859741, -0.055810004472732544, 0.13608625531196594, 0.05373832583427429, 0.08791175484657288, 0.04907211661338806, -0.1496109515428543, 0.08815088868141174, 0.03853505849838257, -0.13500750064849854, 0.18205133080482483, 0.19364511966705322, 0.2025153636932373, 0.0036534667015075684, 0.0750640332698822, -0.08077611029148102, -0.15429925918579102, 0.03596121072769165]}, "bias": 0.0, "fa": "relu"}, "neuron_71": {"inputs_names": ["x1", "x2", "x3", "x4", "x5", "x6", "x7", "x8", "x9", "x10", "x11", "x12", "x13", "x14", "x15", "x16", "x17", "x18", "x19", "x20", "x21", "x22", "x23", "x24", "x25", "x26", "x27", "x28", "x29", "x30", "x31"], "outputs_names": ["o71"], "pesos": {"w": [0.22422444820404053, 0.029095381498336792, -0.18510577082633972, 0.02491864562034607, -0.2089134007692337, 0.20337232947349548, -0.05317187309265137, -0.05957445502281189, -0.052858516573905945, 0.12039798498153687, 0.16693419218063354, 0.20803919434547424, 0.16458198428153992, -0.04817630350589752, 0.1946856677532196, 0.011291727423667908, -0.16520541906356812, 0.1552828848361969, -0.21814724802970886, -0.0731508880853653, 0.015223398804664612, 0.13329964876174927, 0.06922182440757751, -0.041654542088508606, 0.0749712884426117, -0.16874060034751892, -0.06324110925197601, 0.034298449754714966, -0.14826878905296326, 0.007762476801872253, 0.11466124653816223]}, "bias": 0.0, "fa": "relu"}, "neuron_72": {"inputs_names": ["x1", "x2", "x3", "x4", "x5", "x6", "x7", "x8", "x9", "x10", "x11", "x12", "x13", "x14", "x15", "x16", "x17", "x18", "x19", "x20", "x21", "x22", "x23", "x24", "x25", "x26", "x27", "x28", "x29", "x30", "x31"], "outputs_names": ["o72"], "pesos": {"w": [-0.17553716897964478, -0.21867738664150238, -0.023548781871795654, 0.023242413997650146, 0.1328626275062561, 0.20621058344841003, 0.02352234721183777, -0.14313259720802307, -0.22291094064712524, 0.1876373589038849, -0.16257593035697937, 0.12480765581130981, -0.11190532892942429, -0.21988068521022797, 0.046560823917388916, 0.2317103147506714, -0.20349988341331482, 0.18601584434509277, 0.06975206732749939, 0.12259835004806519, 0.11103367805480957, 0.20826974511146545, -0.2162889689207077, 0.15459027886390686, -0.10147927701473236, -0.08255068957805634, -0.10273069143295288, 0.16920381784439087, -0.1922817826271057, 0.02671566605567932, -0.04388870298862457]}, "bias": 0.0, "fa": "relu"}, "neuron_73": {"inputs_names": ["x1", "x2", "x3", "x4", "x5", "x6", "x7", "x8", "x9", "x10", "x11", "x12", "x13", "x14", "x15", "x16", "x17", "x18", "x19", "x20", "x21", "x22", "x23", "x24", "x25", "x26", "x27", "x28", "x29", "x30", "x31"], "outputs_names": ["o73"], "pesos": {"w": [-0.18084405362606049, -0.07115015387535095, -0.013581141829490662, 0.08174538612365723, 0.16015484929084778, -0.11990160495042801, -0.20591002702713013, -0.131988987326622, -0.10849852114915848, -0.1353863775730133, 0.08089563250541687, -0.033524513244628906, -0.012941688299179077, -0.042023226618766785, 0.13066402077674866, 0.13864117860794067, 0.06285452842712402, 0.22881731390953064, -0.07950074970722198, -0.22393520176410675, 0.16282376646995544, -0.2240457385778427, -0.12025903165340424, 0.034702688455581665, 0.11349698901176453, -0.14830471575260162, 0.1859014928340912, -0.11368067562580109, -0.19697457551956177, 0.13247910141944885, -0.11108200252056122]}, "bias": 0.0, "fa": "relu"}, "neuron_74": {"inputs_names": ["x1", "x2", "x3", "x4", "x5", "x6", "x7", "x8", "x9", "x10", "x11", "x12", "x13", "x14", "x15", "x16", "x17", "x18", "x19", "x20", "x21", "x22", "x23", "x24", "x25", "x26", "x27", "x28", "x29", "x30", "x31"], "outputs_names": ["o74"], "pesos": {"w": [-0.1380600929260254, 0.07178384065628052, 0.10454794764518738, 0.1553155481815338, 0.09304368495941162, 0.05625835061073303, 0.20506802201271057, 0.22581470012664795, 0.20023426413536072, -0.08308249711990356, -0.21454349160194397, -0.23200272023677826, -0.1084766834974289, 0.1631133258342743, 0.11511197686195374, -0.1494446098804474, 0.1358374059200287, -0.06488996744155884, -0.041437193751335144, 0.14399239420890808, 0.22701489925384521, 0.023246079683303833, -0.006261557340621948, -0.12376471608877182, 0.1254161298274994, -0.13120165467262268, 0.09406492114067078, 0.18668189644813538, 0.04408341646194458, -0.08694449067115784, 0.03144007921218872]}, "bias": 0.0, "fa": "relu"}, "neuron_75": {"inputs_names": ["x1", "x2", "x3", "x4", "x5", "x6", "x7", "x8", "x9", "x10", "x11", "x12", "x13", "x14", "x15", "x16", "x17", "x18", "x19", "x20", "x21", "x22", "x23", "x24", "x25", "x26", "x27", "x28", "x29", "x30", "x31"], "outputs_names": ["o75"], "pesos": {"w": [0.040194541215896606, -0.06593185663223267, -0.22657738626003265, -0.05075468122959137, 0.1933644711971283, -0.1941371113061905, -0.22424130141735077, -0.06614814698696136, 0.19132348895072937, 0.099764883518219, -0.1416487693786621, 0.019542932510375977, -0.1887342929840088, -0.1732599437236786, 0.13173970580101013, -0.17718663811683655, -0.07575154304504395, 0.16371935606002808, 0.03410425782203674, 0.041344285011291504, 0.21893712878227234, 0.22952932119369507, 0.12206408381462097, 0.053772181272506714, -0.05474351346492767, -0.09246461093425751, 0.11120745539665222, -0.054308995604515076, 0.15555882453918457, 0.202924907207489, 0.08828842639923096]}, "bias": 0.0, "fa": "relu"}, "neuron_76": {"inputs_names": ["x1", "x2", "x3", "x4", "x5", "x6", "x7", "x8", "x9", "x10", "x11", "x12", "x13", "x14", "x15", "x16", "x17", "x18", "x19", "x20", "x21", "x22", "x23", "x24", "x25", "x26", "x27", "x28", "x29", "x30", "x31"], "outputs_names": ["o76"], "pesos": {"w": [-0.08533155918121338, -0.016260355710983276, -0.21221040189266205, 0.09446772933006287, -0.1927766054868698, 0.07047921419143677, 0.002599060535430908, -0.029985234141349792, 0.040770262479782104, -0.10783229768276215, 0.08388146758079529, 0.07819369435310364, 0.198165625333786, -0.11960095167160034, 0.22816744446754456, -0.11439839750528336, 0.15771758556365967, 0.20256775617599487, 0.1769753396511078, -0.15371230244636536, -0.053927838802337646, 0.13895747065544128, 0.0357683002948761, -0.15333537757396698, -0.2044142782688141, 0.023606479167938232, -0.009544968605041504, -0.04564559459686279, -0.2258814573287964, 0.20655709505081177, 0.03248205780982971]}, "bias": 0.0, "fa": "relu"}, "neuron_77": {"inputs_names": ["x1", "x2", "x3", "x4", "x5", "x6", "x7", "x8", "x9", "x10", "x11", "x12", "x13", "x14", "x15", "x16", "x17", "x18", "x19", "x20", "x21", "x22", "x23", "x24", "x25", "x26", "x27", "x28", "x29", "x30", "x31"], "outputs_names": ["o77"], "pesos": {"w": [0.09143951535224915, 0.2261372208595276, -0.0709494948387146, 0.1652921736240387, -0.08698739111423492, 0.03151214122772217, -0.10153941810131073, -0.0563158243894577, 0.08486109972000122, -0.03946617245674133, -0.052178263664245605, -0.028159871697425842, -0.20143651962280273, -0.027878671884536743, -0.1814441978931427, -0.12921759486198425, -0.09099546074867249, -0.17087912559509277, 0.19901412725448608, 0.14184042811393738, -0.03817674517631531, 0.04933491349220276, -0.20386739075183868, 0.1305755078792572, -0.05896100401878357, 0.2091926634311676, -0.19930674135684967, 0.21026581525802612, -0.22116973996162415, 0.08776089549064636, 0.05154973268508911]}, "bias": 0.0, "fa": "relu"}, "neuron_78": {"inputs_names": ["x1", "x2", "x3", "x4", "x5", "x6", "x7", "x8", "x9", "x10", "x11", "x12", "x13", "x14", "x15", "x16", "x17", "x18", "x19", "x20", "x21", "x22", "x23", "x24", "x25", "x26", "x27", "x28", "x29", "x30", "x31"], "outputs_names": ["o78"], "pesos": {"w": [0.040013670921325684, -0.005383595824241638, -0.12957601249217987, -0.01498045027256012, -0.09394289553165436, 0.21641147136688232, -0.1713675856590271, 0.05594831705093384, -0.034778252243995667, 0.10513606667518616, 0.07426133751869202, 0.028714627027511597, 0.17085257172584534, 0.08808520436286926, -0.036354273557662964, 0.15259355306625366, -0.05636388063430786, -0.216607928276062, 0.038540422916412354, 0.05611106753349304, -0.08037573099136353, 0.08406150341033936, 0.03871279954910278, 0.14923202991485596, -0.20031437277793884, 0.21232646703720093, -0.19620591402053833, 0.08544397354125977, 0.22190892696380615, 0.012278556823730469, -0.13952092826366425]}, "bias": 0.0, "fa": "relu"}, "neuron_79": {"inputs_names": ["x1", "x2", "x3", "x4", "x5", "x6", "x7", "x8", "x9", "x10", "x11", "x12", "x13", "x14", "x15", "x16", "x17", "x18", "x19", "x20", "x21", "x22", "x23", "x24", "x25", "x26", "x27", "x28", "x29", "x30", "x31"], "outputs_names": ["o79"], "pesos": {"w": [-0.09692859649658203, 0.14693284034729004, -0.012559816241264343, 0.09159711003303528, 0.16241994500160217, 0.1501052975654602, 0.17713937163352966, 0.11351162195205688, -0.0017363280057907104, 0.05423051118850708, 0.03897365927696228, -0.11358743906021118, 0.031859248876571655, -0.17108316719532013, -0.14138224720954895, -0.0021262317895889282, -0.0343858003616333, -0.08766676485538483, 0.23070955276489258, 0.0903632640838623, -0.09025867283344269, -0.03757581114768982, -0.20311503112316132, -0.173977792263031, -0.0668361634016037, -0.17188066244125366, -0.1823519468307495, -0.020605161786079407, -0.16984699666500092, -0.15984421968460083, -0.22944927215576172]}, "bias": 0.0, "fa": "relu"}, "neuron_80": {"inputs_names": ["x1", "x2", "x3", "x4", "x5", "x6", "x7", "x8", "x9", "x10", "x11", "x12", "x13", "x14", "x15", "x16", "x17", "x18", "x19", "x20", "x21", "x22", "x23", "x24", "x25", "x26", "x27", "x28", "x29", "x30", "x31"], "outputs_names": ["o80"], "pesos": {"w": [-0.025990694761276245, -0.1832917183637619, 0.2046123445034027, -0.10343560576438904, -0.04197798669338226, 0.013566285371780396, 0.22288495302200317, 0.10157942771911621, -0.023687362670898438, 0.18212246894836426, 0.07228738069534302, 0.04673808813095093, 0.2019999623298645, -0.005999147891998291, -0.21533727645874023, 0.05348649621009827, -0.05145999789237976, 0.1469171643257141, 0.057488203048706055, 0.20997291803359985, 0.04049602150917053, -0.18607747554779053, -0.2210497409105301, -0.22368071973323822, 0.22372373938560486, 0.07651221752166748, -0.0774465799331665, -0.22791555523872375, 0.2112402319908142, -0.20587888360023499, -0.06665001809597015]}, "bias": 0.0, "fa": "relu"}}, "layer_2": {"neuron_81": {"inputs_names": ["o1", "o2", "o3", "o4", "o5", "o6", "o7", "o8", "o9", "o10", "o11", "o12", "o13", "o14", "o15", "o16", "o17", "o18", "o19", "o20", "o21", "o22", "o23", "o24", "o25", "o26", "o27", "o28", "o29", "o30", "o31", "o32", "o33", "o34", "o35", "o36", "o37", "o38", "o39", "o40", "o41", "o42", "o43", "o44", "o45", "o46", "o47", "o48", "o49", "o50", "o51", "o52", "o53", "o54", "o55", "o56", "o57", "o58", "o59", "o60", "o61", "o62", "o63", "o64", "o65", "o66", "o67", "o68", "o69", "o70", "o71", "o72", "o73", "o74", "o75", "o76", "o77", "o78", "o79", "o80"], "outputs_names": ["o81"], "pesos": {"w": [-0.021581366658210754, -0.06977367401123047, 0.13080540299415588, -0.060637399554252625, 0.10822528600692749, -0.008845537900924683, 0.06602829694747925, -0.15866035223007202, -0.06392510235309601, -0.009225770831108093, -0.09777740389108658, 0.05301558971405029, 0.02775879204273224, -0.001963376998901367, 0.18010872602462769, 0.042228296399116516, -0.18243803083896637, 0.13219022750854492, 0.06921005249023438, -0.13951247930526733, -0.08316361159086227, -0.12624898552894592, -0.07292722165584564, -0.008400067687034607, -0.004487544298171997, -0.0731886550784111, -0.14581671357154846, 0.1816122829914093, 0.1730293333530426, 0.03749147057533264, -0.036935120820999146, -0.0722329318523407, 0.0363275408744812, -0.09152689576148987, -0.036088213324546814, 0.1344093382358551, -0.05717945098876953, 0.09903234243392944, -0.04787836968898773, -0.10133190453052521, -0.13144010305404663, 0.06963005661964417, 0.11010658740997314, 0.1099236011505127, 0.05336351692676544, 0.12503421306610107, -0.1185414269566536, 0.04868191480636597, 0.04840254783630371, 0.16370239853858948, -0.09367818385362625, 0.12247875332832336, -0.004048988223075867, 0.12113171815872192, 0.0039024651050567627, 0.07290571928024292, 0.02441580593585968, -0.14021572470664978, 0.03006748855113983, 0.0544896125793457, -0.12990599870681763, 0.11418983340263367, 0.05348317325115204, 0.10852524638175964, -0.03611508011817932, 0.17632588744163513, -0.020266056060791016, 0.17053326964378357, 0.047839194536209106, -0.0844375267624855, -0.060130588710308075, 0.04956412315368652, -0.12981824576854706, -0.02634240686893463, 0.043528422713279724, -0.02984587848186493, -0.14977788925170898, 0.04756791889667511, 0.15712180733680725, -0.12555775046348572]}, "bias": 0.0, "fa": "relu"}, "neuron_82": {"inputs_names": ["o1", "o2", "o3", "o4", "o5", "o6", "o7", "o8", "o9", "o10", "o11", "o12", "o13", "o14", "o15", "o16", "o17", "o18", "o19", "o20", "o21", "o22", "o23", "o24", "o25", "o26", "o27", "o28", "o29", "o30", "o31", "o32", "o33", "o34", "o35", "o36", "o37", "o38", "o39", "o40", "o41", "o42", "o43", "o44", "o45", "o46", "o47", "o48", "o49", "o50", "o51", "o52", "o53", "o54", "o55", "o56", "o57", "o58", "o59", "o60", "o61", "o62", "o63", "o64", "o65", "o66", "o67", "o68", "o69", "o70", "o71", "o72", "o73", "o74", "o75", "o76", "o77", "o78", "o79", "o80"], "outputs_names": ["o82"], "pesos": {"w": [-0.14242887496948242, 0.1329340636730194, -0.019281774759292603, -0.08661363273859024, 0.02942478656768799, -0.09927097707986832, 0.06908765435218811, -0.048567041754722595, 0.010941728949546814, -0.11687453091144562, 0.07628187537193298, 0.044756680727005005, -0.040184035897254944, 0.017573297023773193, -0.15338850021362305, -0.15163137018680573, 0.14565303921699524, -0.029023051261901855, -0.1692473590373993, -0.15711650252342224, -0.06944659352302551, 0.15623000264167786, -0.01822274923324585, -0.006300970911979675, -0.018943026661872864, 0.019165724515914917, 0.1561143696308136, -0.0424981415271759, -0.10012035816907883, -0.11233866959810257, 0.07808995246887207, -0.0016557127237319946, -0.00974564254283905, 0.11211341619491577, 0.09257680177688599, -0.08613838255405426, -0.04917357861995697, 0.059983029961586, 0.1346055269241333, -0.012496888637542725, 0.16718962788581848, -0.17423897981643677, -0.11998128145933151, 0.11594101786613464, 0.07882624864578247, 0.09527832269668579, -0.1060643419623375, -0.06355223804712296, 0.13526839017868042, 0.1020030677318573, 0.1374482810497284, -0.06588300317525864, 0.023013561964035034, 0.0021056681871414185, -0.16703037917613983, 0.06501077115535736, -0.15844200551509857, 0.11848905682563782, -0.10964260995388031, 0.11548683047294617, 0.09776610136032104, -0.05394257605075836, -0.016543537378311157, -0.044252753257751465, 0.0060666948556900024, 0.06241394579410553, -0.11878959089517593, -0.023239612579345703, -0.11516544222831726, 0.1261240541934967, 0.08709341287612915, -0.06505154818296432, -0.12188411504030228, -0.09457214176654816, -0.057398319244384766, 0.17679479718208313, -0.04947929084300995, 0.03563860058784485, 0.009866908192634583, 0.16814249753952026]}, "bias": 0.0, "fa": "relu"}, "neuron_83": {"inputs_names": ["o1", "o2", "o3", "o4", "o5", "o6", "o7", "o8", "o9", "o10", "o11", "o12", "o13", "o14", "o15", "o16", "o17", "o18", "o19", "o20", "o21", "o22", "o23", "o24", "o25", "o26", "o27", "o28", "o29", "o30", "o31", "o32", "o33", "o34", "o35", "o36", "o37", "o38", "o39", "o40", "o41", "o42", "o43", "o44", "o45", "o46", "o47", "o48", "o49", "o50", "o51", "o52", "o53", "o54", "o55", "o56", "o57", "o58", "o59", "o60", "o61", "o62", "o63", "o64", "o65", "o66", "o67", "o68", "o69", "o70", "o71", "o72", "o73", "o74", "o75", "o76", "o77", "o78", "o79", "o80"], "outputs_names": ["o83"], "pesos": {"w": [-0.048992276191711426, 0.00834512710571289, 0.034425750374794006, 0.0818711519241333, 0.07925912737846375, -0.07198390364646912, 0.07698440551757812, 0.030109882354736328, -0.0191773921251297, -0.15337470173835754, -0.06419938057661057, -0.1486055701971054, 0.10987669229507446, -0.1808043271303177, -0.008361980319023132, -0.10066255927085876, -0.054941266775131226, -0.0479617714881897, -0.1326408088207245, 0.060717836022377014, 0.15527406334877014, -0.018513962626457214, -0.01505078375339508, -0.046281635761260986, 0.10685470700263977, 0.08145943284034729, 0.17688798904418945, 0.11839503049850464, -0.00802767276763916, -0.04657101631164551, -0.029667675495147705, 0.07244858145713806, 0.049324363470077515, 0.0597129762172699, 0.10638400912284851, -0.17628619074821472, -0.008816763758659363, 0.07149416208267212, 0.009353011846542358, 0.1013222336769104, 0.08597663044929504, -0.05649016797542572, -0.013549476861953735, -0.10333019495010376, -0.12273188680410385, -0.13626576960086823, -0.04142040014266968, 0.16409975290298462, -0.05161695182323456, 0.11746498942375183, -0.009683310985565186, 0.07196739315986633, -0.0352439284324646, -0.028773680329322815, -0.03315892815589905, 0.12828409671783447, -0.11063515394926071, -0.1106104776263237, 0.0948781967163086, 0.11688017845153809, -0.12026792764663696, -0.0011341124773025513, 0.031031355261802673, -0.17892317473888397, 0.0500359833240509, 0.1436331570148468, 0.16392046213150024, 0.15194737911224365, 0.010101616382598877, 0.07788264751434326, -0.007607221603393555, -0.14150601625442505, 0.028079524636268616, 0.1499233841896057, 0.09343874454498291, -0.09886707365512848, -0.11727926135063171, 0.16059067845344543, 0.09601688385009766, -0.12803250551223755]}, "bias": 0.0, "fa": "relu"}, "neuron_84": {"inputs_names": ["o1", "o2", "o3", "o4", "o5", "o6", "o7", "o8", "o9", "o10", "o11", "o12", "o13", "o14", "o15", "o16", "o17", "o18", "o19", "o20", "o21", "o22", "o23", "o24", "o25", "o26", "o27", "o28", "o29", "o30", "o31", "o32", "o33", "o34", "o35", "o36", "o37", "o38", "o39", "o40", "o41", "o42", "o43", "o44", "o45", "o46", "o47", "o48", "o49", "o50", "o51", "o52", "o53", "o54", "o55", "o56", "o57", "o58", "o59", "o60", "o61", "o62", "o63", "o64", "o65", "o66", "o67", "o68", "o69", "o70", "o71", "o72", "o73", "o74", "o75", "o76", "o77", "o78", "o79", "o80"], "outputs_names": ["o84"], "pesos": {"w": [0.10980784893035889, -0.06836149841547012, 0.09033235907554626, -0.0507342666387558, 0.05363139510154724, 0.0818834900856018, 0.01609174907207489, -0.132013201713562, 0.13922762870788574, 0.09319400787353516, 0.05139195919036865, 0.17473506927490234, 0.0808141827583313, 0.11229255795478821, -0.0743764340877533, -0.09161743521690369, -0.06609158962965012, -0.11467326432466507, -0.16892285645008087, 0.12764954566955566, 0.1160041093826294, 0.17377731204032898, 0.08642461895942688, -0.15076488256454468, -0.07872890681028366, 0.11156022548675537, 0.052274808287620544, 0.0951927900314331, -0.17668552696704865, 0.026377961039543152, 0.1334277093410492, 0.05624757707118988, 0.11412915587425232, -0.17450645565986633, -0.04311342537403107, -0.03270086646080017, 0.0891762375831604, 0.14905431866645813, 0.04062698781490326, -0.13061752915382385, -0.11075025051832199, 0.022768616676330566, 0.09655946493148804, -0.11757103353738785, -0.1566346436738968, 0.07122963666915894, 0.053382888436317444, -0.001128271222114563, 0.09842494130134583, 0.016501307487487793, 0.04262293875217438, -0.05049237608909607, -0.05362507700920105, 0.03144070506095886, -0.0014681965112686157, 0.07748350501060486, -0.11331906914710999, 0.06540539860725403, 0.1091589629650116, 0.12220883369445801, -0.08615784347057343, 0.060216814279556274, -0.07107706367969513, 0.05479396879673004, 0.04704922437667847, -0.14225712418556213, -0.10894239693880081, 0.1231653094291687, 0.14201995730400085, 0.11546820402145386, 0.17226293683052063, -0.02665729820728302, -0.08146214485168457, 0.07464432716369629, 0.13464674353599548, 0.14983120560646057, -0.14391183853149414, 0.05884923040866852, 0.12426280975341797, -0.03638552129268646]}, "bias": 0.0, "fa": "relu"}, "neuron_85": {"inputs_names": ["o1", "o2", "o3", "o4", "o5", "o6", "o7", "o8", "o9", "o10", "o11", "o12", "o13", "o14", "o15", "o16", "o17", "o18", "o19", "o20", "o21", "o22", "o23", "o24", "o25", "o26", "o27", "o28", "o29", "o30", "o31", "o32", "o33", "o34", "o35", "o36", "o37", "o38", "o39", "o40", "o41", "o42", "o43", "o44", "o45", "o46", "o47", "o48", "o49", "o50", "o51", "o52", "o53", "o54", "o55", "o56", "o57", "o58", "o59", "o60", "o61", "o62", "o63", "o64", "o65", "o66", "o67", "o68", "o69", "o70", "o71", "o72", "o73", "o74", "o75", "o76", "o77", "o78", "o79", "o80"], "outputs_names": ["o85"], "pesos": {"w": [0.17332008481025696, 0.09013190865516663, -0.01213042438030243, 0.0299951434135437, -0.10359545797109604, -0.16745035350322723, 0.10691168904304504, 0.1089356541633606, 0.17548561096191406, -0.05725383758544922, 0.18113157153129578, 0.05350503325462341, 0.016882672905921936, -0.056121259927749634, -0.009893283247947693, -0.08940450102090836, -0.11179011315107346, -0.12671910226345062, 0.0005264878273010254, 0.04637300968170166, -0.06688112020492554, -0.1411399394273758, -0.03247809410095215, 0.1267249882221222, 0.04282525181770325, -0.1566108763217926, -0.10921545326709747, 0.18024790287017822, -0.1191757395863533, 0.022884711623191833, 0.06502991914749146, -0.05809934437274933, -0.012517184019088745, -0.11007127910852432, -0.13057008385658264, -0.053460925817489624, -0.06483590602874756, -0.09465711563825607, -0.07206952571868896, -0.12315616011619568, -0.023133620619773865, 0.1751396656036377, 0.11071059107780457, 0.12258920073509216, -0.1533478945493698, 0.05123111605644226, 0.033957600593566895, 0.07807770371437073, 0.059341877698898315, 0.04897569119930267, 0.010161995887756348, -0.10200046747922897, 0.0037869811058044434, -0.04462409019470215, 0.160956472158432, -0.09737628698348999, -0.007392764091491699, -0.14661520719528198, 0.1154424250125885, -0.12269279360771179, 0.13747435808181763, 0.17140087485313416, 0.18113607168197632, -0.11130820214748383, 0.10502517223358154, 0.17615869641304016, 0.11969959735870361, 0.09854534268379211, 0.06686435639858246, 0.061093106865882874, 0.04643568396568298, -0.09959374368190765, -0.07067959755659103, -0.028015747666358948, 0.14449536800384521, -0.09963570535182953, -0.14285734295845032, 0.12465009093284607, 0.1358972191810608, 0.06736277043819427]}, "bias": 0.0, "fa": "relu"}, "neuron_86": {"inputs_names": ["o1", "o2", "o3", "o4", "o5", "o6", "o7", "o8", "o9", "o10", "o11", "o12", "o13", "o14", "o15", "o16", "o17", "o18", "o19", "o20", "o21", "o22", "o23", "o24", "o25", "o26", "o27", "o28", "o29", "o30", "o31", "o32", "o33", "o34", "o35", "o36", "o37", "o38", "o39", "o40", "o41", "o42", "o43", "o44", "o45", "o46", "o47", "o48", "o49", "o50", "o51", "o52", "o53", "o54", "o55", "o56", "o57", "o58", "o59", "o60", "o61", "o62", "o63", "o64", "o65", "o66", "o67", "o68", "o69", "o70", "o71", "o72", "o73", "o74", "o75", "o76", "o77", "o78", "o79", "o80"], "outputs_names": ["o86"], "pesos": {"w": [0.06779009103775024, -0.09387772530317307, -0.026367515325546265, 0.132056325674057, -0.006309404969215393, -0.11949662864208221, 0.1615581214427948, -0.023320272564888, -0.1426910161972046, 0.08346453309059143, -0.022003039717674255, -0.15884242951869965, -0.10806306451559067, -0.046886563301086426, 0.08340814709663391, 0.008949145674705505, -0.034040823578834534, -0.1223706379532814, 0.1027778685092926, 0.17887508869171143, 0.14899829030036926, 0.03632110357284546, 0.11193567514419556, 0.0368838906288147, -0.14126147329807281, -0.08035872131586075, 0.06055377423763275, 0.07771909236907959, 0.11103984713554382, 0.1113736629486084, -0.008114993572235107, -0.04796886444091797, -0.1243259608745575, 0.14265993237495422, 0.11131146550178528, 0.17077955603599548, 0.11933055520057678, -0.0019401758909225464, -0.10927639901638031, 0.08668628334999084, -0.13525167107582092, -0.059422895312309265, -0.08475542068481445, -0.1614384651184082, 0.057762786746025085, 0.13783952593803406, -0.07268881797790527, -0.17155027389526367, 0.1376100480556488, 0.0264575332403183, 0.05507791042327881, 0.11687815189361572, 0.16801953315734863, 0.11053603887557983, 0.1689249575138092, 0.13191008567810059, -0.175636425614357, -0.09249871969223022, -0.14010155200958252, 0.052289873361587524, 0.058896154165267944, 0.11426651477813721, -0.031479790806770325, 0.06847184896469116, 0.17992201447486877, -0.10261383652687073, -0.1240856796503067, 0.11766019463539124, -0.17133145034313202, 0.11282941699028015, -0.12622813880443573, 0.00041218101978302, 0.04768632352352142, -0.0332506000995636, -0.013106554746627808, -0.16024190187454224, -0.07054361701011658, 0.1210208535194397, -0.13318651914596558, 0.0795031189918518]}, "bias": 0.0, "fa": "relu"}, "neuron_87": {"inputs_names": ["o1", "o2", "o3", "o4", "o5", "o6", "o7", "o8", "o9", "o10", "o11", "o12", "o13", "o14", "o15", "o16", "o17", "o18", "o19", "o20", "o21", "o22", "o23", "o24", "o25", "o26", "o27", "o28", "o29", "o30", "o31", "o32", "o33", "o34", "o35", "o36", "o37", "o38", "o39", "o40", "o41", "o42", "o43", "o44", "o45", "o46", "o47", "o48", "o49", "o50", "o51", "o52", "o53", "o54", "o55", "o56", "o57", "o58", "o59", "o60", "o61", "o62", "o63", "o64", "o65", "o66", "o67", "o68", "o69", "o70", "o71", "o72", "o73", "o74", "o75", "o76", "o77", "o78", "o79", "o80"], "outputs_names": ["o87"], "pesos": {"w": [0.058667972683906555, 0.03540010750293732, 0.06175491213798523, 0.025798022747039795, -0.17309480905532837, -0.1509789079427719, 0.07034525275230408, 0.04547412693500519, 0.13927432894706726, -0.08757863193750381, -0.06559178978204727, -0.06791215389966965, 0.051626309752464294, -0.14064353704452515, -0.07827633619308472, -0.011202037334442139, -0.03093898296356201, 0.10773977637290955, 0.07670196890830994, -0.05809860676527023, -0.021847590804100037, 0.09792885184288025, -0.008761540055274963, 0.05776412785053253, 0.07951873540878296, 0.04706938564777374, -0.07991111278533936, -0.16108174622058868, -0.013944283127784729, 0.10593265295028687, -0.04487225413322449, -0.048722922801971436, 0.07662907242774963, -0.11514246463775635, -0.11587914824485779, -0.16167160868644714, 0.15221840143203735, 0.05322796106338501, -0.013383761048316956, 0.0936441421508789, 0.0753469467163086, 0.14221781492233276, 0.094662606716156, -0.14032354950904846, 0.1626710295677185, -0.1660131961107254, -0.17631743848323822, -0.15592680871486664, 0.02763664722442627, 0.05741846561431885, 0.02755369246006012, 0.056282490491867065, -0.05512383580207825, -0.141810804605484, -0.08918455243110657, 0.13819468021392822, 0.1196933388710022, 0.17470964789390564, 0.025286689400672913, -0.16155529022216797, -0.12409895658493042, -0.011125639081001282, 0.10024693608283997, 0.009706899523735046, 0.02765023708343506, 0.1632615029811859, -0.020726755261421204, 0.06456968188285828, 0.10183596611022949, 0.17517387866973877, -0.18009111285209656, -0.1772995889186859, 0.055619850754737854, 0.018120065331459045, 0.08425432443618774, 0.08690768480300903, -0.08374951034784317, 0.0022205859422683716, 0.07301542162895203, -0.140852689743042]}, "bias": 0.0, "fa": "relu"}, "neuron_88": {"inputs_names": ["o1", "o2", "o3", "o4", "o5", "o6", "o7", "o8", "o9", "o10", "o11", "o12", "o13", "o14", "o15", "o16", "o17", "o18", "o19", "o20", "o21", "o22", "o23", "o24", "o25", "o26", "o27", "o28", "o29", "o30", "o31", "o32", "o33", "o34", "o35", "o36", "o37", "o38", "o39", "o40", "o41", "o42", "o43", "o44", "o45", "o46", "o47", "o48", "o49", "o50", "o51", "o52", "o53", "o54", "o55", "o56", "o57", "o58", "o59", "o60", "o61", "o62", "o63", "o64", "o65", "o66", "o67", "o68", "o69", "o70", "o71", "o72", "o73", "o74", "o75", "o76", "o77", "o78", "o79", "o80"], "outputs_names": ["o88"], "pesos": {"w": [0.1634044647216797, -0.09429455548524857, -0.10907154530286789, -0.15878501534461975, -0.13124112784862518, 0.1262577474117279, -0.14180144667625427, -0.06370454281568527, 0.03906451165676117, 0.09292277693748474, 0.09059461951255798, -0.014204621315002441, 0.03973656892776489, -0.007164269685745239, 0.16802310943603516, 0.14157262444496155, -0.0458027720451355, 0.0668657124042511, -0.08622557669878006, 0.08677560091018677, 0.06966114044189453, -0.08284732699394226, 0.005058780312538147, -0.17948178946971893, -0.028142377734184265, -0.024178266525268555, 0.11506649851799011, -0.17100998759269714, 0.04165484011173248, -0.08867643773555756, 0.004932492971420288, -0.13512836396694183, -0.13410533964633942, -0.10284976661205292, 0.13887977600097656, -0.08642463386058807, 0.17924830317497253, 0.0697755515575409, -0.10377980768680573, 0.14038023352622986, -0.11116112023591995, -0.07650592178106308, -0.03464561700820923, -0.05246381461620331, -0.10574788600206375, 0.045288607478141785, 0.07249602675437927, 0.07890510559082031, -0.09193110466003418, -0.14517508447170258, -0.10607944428920746, -0.16159281134605408, -0.047688186168670654, -0.009338468313217163, -0.17863601446151733, -0.08662373572587967, -0.1812375783920288, 0.0683349072933197, -0.15270957350730896, 0.1321239471435547, 0.15515100955963135, 0.17574837803840637, 0.14941316843032837, 0.0688646137714386, 0.08223935961723328, 0.07802605628967285, -0.14033913612365723, 0.11234450340270996, 0.15653538703918457, 0.16466161608695984, -0.15642200410366058, -0.18144407868385315, 0.14126726984977722, 0.09603431820869446, 0.03751932084560394, -0.08591186255216599, -0.11384569108486176, 0.028857603669166565, -0.16295553743839264, -0.07410228997468948]}, "bias": 0.0, "fa": "relu"}, "neuron_89": {"inputs_names": ["o1", "o2", "o3", "o4", "o5", "o6", "o7", "o8", "o9", "o10", "o11", "o12", "o13", "o14", "o15", "o16", "o17", "o18", "o19", "o20", "o21", "o22", "o23", "o24", "o25", "o26", "o27", "o28", "o29", "o30", "o31", "o32", "o33", "o34", "o35", "o36", "o37", "o38", "o39", "o40", "o41", "o42", "o43", "o44", "o45", "o46", "o47", "o48", "o49", "o50", "o51", "o52", "o53", "o54", "o55", "o56", "o57", "o58", "o59", "o60", "o61", "o62", "o63", "o64", "o65", "o66", "o67", "o68", "o69", "o70", "o71", "o72", "o73", "o74", "o75", "o76", "o77", "o78", "o79", "o80"], "outputs_names": ["o89"], "pesos": {"w": [0.06648857891559601, 0.0036004632711410522, -0.08593027293682098, -0.17107036709785461, 0.069058358669281, 0.02089439332485199, -0.09113913774490356, 0.1335560381412506, -0.09634939581155777, 0.09056046605110168, -0.057008296251297, -0.07583248615264893, 0.06567645072937012, 0.024712279438972473, 0.06437745690345764, -0.05624905228614807, 0.06065031886100769, 0.026325643062591553, 0.026531457901000977, -0.17447015643119812, 0.10552588105201721, 0.06160557270050049, 0.12439221143722534, -0.013771027326583862, 0.10008993744850159, 0.13469964265823364, -0.035907477140426636, -0.015799447894096375, 0.13380277156829834, 0.05970953404903412, -0.023005157709121704, 0.07083478569984436, -0.03616735339164734, -0.12111369520425797, -0.15857921540737152, -0.0952242985367775, 0.15983715653419495, -0.09116586297750473, 0.04030108451843262, 0.16805300116539001, -0.09478852897882462, 0.1702168881893158, 0.026079446077346802, -0.12387021631002426, 0.1161244809627533, 0.051990658044815063, 0.03177039325237274, 0.16617760062217712, -0.08341080695390701, 0.16711512207984924, 0.08937311172485352, 0.08984968066215515, 0.09163683652877808, 0.1768243908882141, 0.17229369282722473, 0.15852046012878418, -0.042610347270965576, -0.006061643362045288, 0.17415231466293335, -0.16860857605934143, 0.15765753388404846, 0.12121272087097168, -0.060151830315589905, -0.11049839109182358, 0.007755056023597717, -0.07724665850400925, 0.12220200896263123, 0.01830141246318817, -0.05969385802745819, -0.07138820737600327, -0.02624860405921936, 0.05764093995094299, 0.04350943863391876, -0.024239346385002136, 0.07852646708488464, 0.1377878189086914, 0.005066215991973877, 0.1819794774055481, 0.0993206799030304, -0.1195199191570282]}, "bias": 0.0, "fa": "relu"}, "neuron_90": {"inputs_names": ["o1", "o2", "o3", "o4", "o5", "o6", "o7", "o8", "o9", "o10", "o11", "o12", "o13", "o14", "o15", "o16", "o17", "o18", "o19", "o20", "o21", "o22", "o23", "o24", "o25", "o26", "o27", "o28", "o29", "o30", "o31", "o32", "o33", "o34", "o35", "o36", "o37", "o38", "o39", 